; Name:            
; Defined at line: 1
; #Upvalues:       0
; #Parameters:     0
; Is_vararg:       1
; Max Stack Size:  35

       1 [-]: GETIMPORT R0 1; var0 = 0x7ED0A956
       2 [-]: LOADK R1 K2  ; var1 = "/Lotus/Powersuits/Operator/UmbraAvatar"
       3 [-]: CALL R0 2 2  ; var0 = var0(var1)
       4 [-]: GETIMPORT R1 4; var1 = 0xA421AF95
       5 [-]: LOADN R2 0   ; var2 = 0
       6 [-]: LOADN R3 1   ; var3 = 1
       7 [-]: LOADN R4 0   ; var4 = 0
       8 [-]: CALL R1 4 2  ; var1 = var1(var2, var3, var4)
       9 [-]: GETIMPORT R2 4; var2 = 0xA421AF95
      10 [-]: LOADN R3 0   ; var3 = 0
      11 [-]: LOADN R4 0   ; var4 = 0
      12 [-]: LOADN R5 1   ; var5 = 1
      13 [-]: CALL R2 4 2  ; var2 = var2(var3, var4, var5)
      14 [-]: LOADNIL R3   ; var3 = nil
      15 [-]: LOADNIL R4   ; var4 = nil
      16 [-]: LOADNIL R5   ; var5 = nil
      17 [-]: LOADNIL R6   ; var6 = nil
      18 [-]: LOADNIL R7   ; var7 = nil
      19 [-]: LOADNIL R8   ; var8 = nil
      20 [-]: LOADNIL R9   ; var9 = nil
      21 [-]: LOADN R10 0  ; var10 = 0
      22 [-]: LOADB R11 0  ; var11 = false
      23 [-]: LOADNIL R12  ; var12 = nil
      24 [-]: LOADNIL R13  ; var13 = nil
      25 [-]: LOADN R14 5  ; var14 = 5
      26 [-]: LOADN R15 0  ; var15 = 0
      27 [-]: LOADNIL R16  ; var16 = nil
      28 [-]: LOADB R17 0  ; var17 = false
      29 [-]: LOADN R18 0  ; var18 = 0
      30 [-]: LOADNIL R19  ; var19 = nil
      31 [-]: LOADN R20 0  ; var20 = 0
      32 [-]: LOADB R21 0  ; var21 = false
      33 [-]: GETIMPORT R22 6; var22 = 0x2D0FAD09
      34 [-]: LOADK R23 K7 ; var23 = "Lotus.Interface.LotusUtilities"
      35 [-]: CALL R22 2 2 ; var22 = var22(var23)
      36 [-]: GETIMPORT R23 6; var23 = 0x2D0FAD09
      37 [-]: LOADK R24 K8 ; var24 = "Lotus.Scripts.Libs.TransmissionSet"
      38 [-]: CALL R23 2 2 ; var23 = var23(var24)
      39 [-]: LOADNIL R24  ; var24 = nil
      40 [-]: DUPCLOSURE R25 K9; 
      41 [-]: NEWCLOSURE R26 P1; 
      42 [-]: CAPTURE VAL R25; 
      43 [-]: CAPTURE REF R5; 
      44 [-]: CAPTURE REF R24; 
      45 [-]: NEWCLOSURE R27 P2; 
      46 [-]: CAPTURE REF R3; 
      47 [-]: CAPTURE VAL R1; 
      48 [-]: NEWCLOSURE R28 P3; 
      49 [-]: CAPTURE REF R7; 
      50 [-]: CAPTURE REF R6; 
      51 [-]: CAPTURE REF R8; 
      52 [-]: CAPTURE REF R5; 
      53 [-]: NEWCLOSURE R29 P4; 
      54 [-]: CAPTURE REF R12; 
      55 [-]: CAPTURE REF R13; 
      56 [-]: CAPTURE REF R16; 
      57 [-]: NEWCLOSURE R30 P5; 
      58 [-]: CAPTURE REF R18; 
      59 [-]: CAPTURE REF R16; 
      60 [-]: CAPTURE VAL R25; 
      61 [-]: CAPTURE VAL R28; 
      62 [-]: CAPTURE REF R11; 
      63 [-]: CAPTURE VAL R29; 
      64 [-]: CAPTURE REF R4; 
      65 [-]: CAPTURE REF R5; 
      66 [-]: CAPTURE VAL R26; 
      67 [-]: CAPTURE REF R9; 
      68 [-]: CAPTURE VAL R27; 
      69 [-]: CAPTURE REF R10; 
      70 [-]: NEWCLOSURE R31 P6; 
      71 [-]: CAPTURE VAL R2; 
      72 [-]: CAPTURE VAL R25; 
      73 [-]: CAPTURE REF R16; 
      74 [-]: CAPTURE REF R8; 
      75 [-]: CAPTURE REF R6; 
      76 [-]: CAPTURE REF R10; 
      77 [-]: CAPTURE REF R17; 
      78 [-]: CAPTURE VAL R29; 
      79 [-]: NEWCLOSURE R24 P7; 
      80 [-]: CAPTURE REF R14; 
      81 [-]: CAPTURE REF R15; 
      82 [-]: DUPCLOSURE R32 K10; 
      83 [-]: DUPCLOSURE R33 K11; 
      84 [-]: NEWCLOSURE R34 P10; 
      85 [-]: CAPTURE REF R19; 
      86 [-]: CAPTURE VAL R25; 
      87 [-]: CAPTURE REF R3; 
      88 [-]: CAPTURE VAL R30; 
      89 [-]: CAPTURE REF R9; 
      90 [-]: CAPTURE REF R11; 
      91 [-]: CAPTURE VAL R28; 
      92 [-]: CAPTURE VAL R27; 
      93 [-]: CAPTURE REF R4; 
      94 [-]: CAPTURE REF R14; 
      95 [-]: CAPTURE VAL R31; 
      96 [-]: CAPTURE REF R24; 
      97 [-]: CAPTURE VAL R32; 
      98 [-]: CAPTURE VAL R33; 
      99 [-]: CAPTURE REF R17; 
     100 [-]: CAPTURE REF R16; 
     101 [-]: SETGLOBAL R34 K12; "ChimeraCamera" = var34
     102 [-]: NEWCLOSURE R34 P11; 
     103 [-]: CAPTURE REF R17; 
     104 [-]: SETGLOBAL R34 K13; "InputHandler_PRE_ATTACK" = var34
     105 [-]: NEWCLOSURE R34 P12; 
     106 [-]: CAPTURE VAL R23; 
     107 [-]: CAPTURE VAL R22; 
     108 [-]: CAPTURE REF R20; 
     109 [-]: CAPTURE REF R21; 
     110 [-]: SETGLOBAL R34 K14; "Chimera" = var34
     111 [-]: NEWCLOSURE R34 P13; 
     112 [-]: CAPTURE REF R20; 
     113 [-]: CAPTURE REF R21; 
     114 [-]: SETGLOBAL R34 K15; "BallasSummonSword" = var34
     115 [-]: DUPCLOSURE R34 K16; 
     116 [-]: CAPTURE VAL R0; 
     117 [-]: SETGLOBAL R34 K17; "RemovePetsAndHideUmbra" = var34
     118 [-]: CLOSEUPVALS R3; 
     119 [-]: RETURN R0 0  ; 


; Name:            
; Defined at line: 71
; #Upvalues:       0
; #Parameters:     0
; Is_vararg:       0
; Max Stack Size:  3

       0 [-]: GETIMPORT R0 1; var0 = 0x89326C93
       1 [-]: NAMECALL R0 R0 K2; var1 = var0; var0 = var0[0x78298275]
       2 [-]: CALL R0 2 2  ; var0 = var0(var1)
L 0:   3 [-]: FASTCALL1 62 R0 L1; 
       4 [-]: MOVE R2 R0   ; var2 = var0
       5 [-]: GETIMPORT R1 4; var1 = 0x7B998233
       6 [-]: CALL R1 2 2  ; var1 = var1(var2)
L 1:   7 [-]: JUMPIFNOT R1 L2; goto L2 if not var1
       8 [-]: GETIMPORT R1 6; var1 = 0xCBD666E1
       9 [-]: LOADN R2 0   ; var2 = 0
      10 [-]: CALL R1 2 1  ; var1(var2)
      11 [-]: GETIMPORT R1 1; var1 = 0x89326C93
      12 [-]: NAMECALL R1 R1 K2; var2 = var1; var1 = var1[0x78298275]
      13 [-]: CALL R1 2 2  ; var1 = var1(var2)
      14 [-]: MOVE R0 R1   ; var0 = var1
      15 [-]: JUMPBACK L0  ; goto L0
L 2:  16 [-]: RETURN R0 1  ; 


; Name:            
; Defined at line: 81
; #Upvalues:       3
; #Parameters:     2
; Is_vararg:       0
; Max Stack Size:  39

       0 [-]: GETUPVAL R2 0; var2 = upvalues[0]
       1 [-]: CALL R2 1 2  ; var2 = var2()
       2 [-]: NAMECALL R3 R2 K0; var4 = var2; var3 = var2[0x0B4BCFB6]
       3 [-]: CALL R3 2 2  ; var3 = var3(var4)
       4 [-]: GETIMPORT R4 2; var4 = 0x89326C93
       5 [-]: GETIMPORT R6 4; var6 = 0x216F01BA
       6 [-]: GETIMPORT R7 6; var7 = ZERO_VECTOR
       7 [-]: LOADB R8 0   ; var8 = false
       8 [-]: LOADN R9 1   ; var9 = 1
       9 [-]: NAMECALL R4 R4 K7; var5 = var4; var4 = var4[0x659D451F]
      10 [-]: CALL R4 6 1  ; var4(var5, var6, var7, var8, var9)
      11 [-]: NAMECALL R4 R3 K8; var5 = var3; var4 = var3[0xA72AFC7E]
      12 [-]: CALL R4 2 2  ; var4 = var4(var5)
      13 [-]: NAMECALL R7 R2 K9; var8 = var2; var7 = var2[0xF6EBD926]
      14 [-]: CALL R7 2 2  ; var7 = var7(var8)
      15 [-]: MOVE R5 R7   ; var5 = var7
      16 [-]: NAMECALL R6 R2 K10; var7 = var2; var6 = var2[0x5280B883]
      17 [-]: CALL R6 2 2  ; var6 = var6(var7)
      18 [-]: NAMECALL R9 R0 K9; var10 = var0; var9 = var0[0xF6EBD926]
      19 [-]: CALL R9 2 2  ; var9 = var9(var10)
      20 [-]: MOVE R7 R9   ; var7 = var9
      21 [-]: NAMECALL R8 R0 K10; var9 = var0; var8 = var0[0x5280B883]
      22 [-]: CALL R8 2 2  ; var8 = var8(var9)
      23 [-]: NAMECALL R11 R3 K11; var12 = var3; var11 = var3[0x6C321A10]
      24 [-]: CALL R11 2 2 ; var11 = var11(var12)
      25 [-]: MOVE R9 R11  ; var9 = var11
      26 [-]: NAMECALL R10 R3 K12; var11 = var3; var10 = var3[0x4F92E6FD]
      27 [-]: CALL R10 2 2 ; var10 = var10(var11)
      28 [-]: GETIMPORT R11 14; var11 = 0x00046924
      29 [-]: GETTABLEKS R12 R10 K15; var12 = var10["heading"]
      30 [-]: GETTABLEKS R13 R10 K16; var13 = var10["pitch"]
      31 [-]: GETTABLEKS R14 R10 K17; var14 = var10["bank"]
      32 [-]: CALL R11 4 2 ; var11 = var11(var12, var13, var14)
      33 [-]: GETIMPORT R12 19; var12 = 0x20B7F774
      34 [-]: MOVE R13 R5  ; var13 = var5
      35 [-]: MOVE R14 R7  ; var14 = var7
      36 [-]: CALL R12 3 2 ; var12 = var12(var13, var14)
      37 [-]: LOADN R13 0  ; var13 = 0
      38 [-]: SETTABLEKS R13 R12 K17; var13["bank"] = var12
      39 [-]: GETIMPORT R13 2; var13 = 0x89326C93
      40 [-]: GETIMPORT R15 21; var15 = 0x34F63F53
      41 [-]: MOVE R16 R9  ; var16 = var9
      42 [-]: MOVE R17 R10 ; var17 = var10
      43 [-]: NAMECALL R13 R13 K22; var14 = var13; var13 = var13[0x05909209]
      44 [-]: CALL R13 5 2 ; var13 = var13(var14, var15, var16, var17)
      45 [-]: NAMECALL R14 R13 K23; var15 = var13; var14 = var13[0xAAC2F3A5]
      46 [-]: CALL R14 2 2 ; var14 = var14(var15)
      47 [-]: MOVE R15 R14 ; var15 = var14
      48 [-]: NAMECALL R16 R1 K23; var17 = var1; var16 = var1[0xAAC2F3A5]
      49 [-]: CALL R16 2 2 ; var16 = var16(var17)
      50 [-]: GETUPVAL R18 1; var18 = upvalues[1]
      51 [-]: FASTCALL1 62 R18 L0; 
      52 [-]: GETIMPORT R17 25; var17 = 0x7B998233
      53 [-]: CALL R17 2 2 ; var17 = var17(var18)
L 0:  54 [-]: JUMPIF R17 L1; goto L1 if var17
      55 [-]: GETUPVAL R17 1; var17 = upvalues[1]
      56 [-]: NAMECALL R17 R17 K23; var18 = var17; var17 = var17[0xAAC2F3A5]
      57 [-]: CALL R17 2 2 ; var17 = var17(var18)
      58 [-]: MOVE R15 R17 ; var15 = var17
      59 [-]: MOVE R19 R15 ; var19 = var15
      60 [-]: NAMECALL R17 R13 K26; var18 = var13; var17 = var13[0xACEA6D71]
      61 [-]: CALL R17 3 1 ; var17(var18, var19)
L 1:  62 [-]: NAMECALL R17 R3 K27; var18 = var3; var17 = var3[0xFCA5CC93]
      63 [-]: CALL R17 2 2 ; var17 = var17(var18)
      64 [-]: LOADN R20 100; var20 = 100
      65 [-]: NAMECALL R18 R3 K28; var19 = var3; var18 = var3[0xDA2DE8A7]
      66 [-]: CALL R18 3 1 ; var18(var19, var20)
      67 [-]: LOADN R20 0  ; var20 = 0
      68 [-]: NAMECALL R18 R3 K29; var19 = var3; var18 = var3[0x68F07B6A]
      69 [-]: CALL R18 3 1 ; var18(var19, var20)
      70 [-]: MOVE R20 R13 ; var20 = var13
      71 [-]: NAMECALL R18 R3 K30; var19 = var3; var18 = var3[0x14C7F7DD]
      72 [-]: CALL R18 3 1 ; var18(var19, var20)
      73 [-]: MOVE R20 R4  ; var20 = var4
      74 [-]: NAMECALL R18 R3 K29; var19 = var3; var18 = var3[0x68F07B6A]
      75 [-]: CALL R18 3 1 ; var18(var19, var20)
      76 [-]: GETUPVAL R20 1; var20 = upvalues[1]
      77 [-]: JUMPIF R20 L2; goto L2 if var20
      78 [-]: GETIMPORT R20 2; var20 = 0x89326C93
      79 [-]: NAMECALL R20 R20 K31; var21 = var20; var20 = var20[0x78298275]
      80 [-]: CALL R20 2 2 ; var20 = var20(var21)
L 2:  81 [-]: NAMECALL R18 R1 K32; var19 = var1; var18 = var1[0xBEBAD19F]
      82 [-]: CALL R18 3 2 ; var18 = var18(var19, var20)
      83 [-]: GETIMPORT R19 34; var19 = 0x9BAFFFE3
      84 [-]: LOADK R20 K35; var20 = 0.40000000000000002
      85 [-]: LOADK R21 K36; var21 = 0.69999999999999996
      86 [-]: GETIMPORT R22 38; var22 = 0x42DCC9F5
      87 [-]: SUBK R24 R18 K40; var24 = var18 - 10
      88 [-]: DIVK R23 R24 K39; var23 = var24 / 0.29999999999999993
      89 [-]: LOADN R24 0  ; var24 = 0
      90 [-]: LOADN R25 1  ; var25 = 1
      91 [-]: CALL R22 4 0 ; var22, ... = var22(var23, var24, var25)
      92 [-]: CALL R19 0 2 ; var19 = var19(var20, ...)
      93 [-]: NAMECALL R22 R1 K9; var23 = var1; var22 = var1[0xF6EBD926]
      94 [-]: CALL R22 2 2 ; var22 = var22(var23)
      95 [-]: MOVE R20 R22 ; var20 = var22
      96 [-]: NAMECALL R21 R1 K10; var22 = var1; var21 = var1[0x5280B883]
      97 [-]: CALL R21 2 2 ; var21 = var21(var22)
      98 [-]: NAMECALL R22 R2 K41; var23 = var2; var22 = var2[0x020D4331]
      99 [-]: CALL R22 2 2 ; var22 = var22(var23)
     100 [-]: MOVE R24 R12 ; var24 = var12
     101 [-]: NAMECALL R22 R22 K42; var23 = var22; var22 = var22[0x553549E8]
     102 [-]: CALL R22 3 1 ; var22(var23, var24)
     103 [-]: GETIMPORT R24 44; var24 = 0xD6DCF531
     104 [-]: LOADB R25 0  ; var25 = false
     105 [-]: LOADN R26 3  ; var26 = 3
     106 [-]: LOADN R27 1  ; var27 = 1
     107 [-]: LOADB R28 1  ; var28 = true
     108 [-]: NAMECALL R22 R2 K45; var23 = var2; var22 = var2[0x5D985C7E]
     109 [-]: CALL R22 7 1 ; var22(var23, var24, var25, var26, var27, var28)
     110 [-]: GETIMPORT R24 47; var24 = 0x43461B42
     111 [-]: GETIMPORT R25 49; var25 = EMPTY_SYMBOL
     112 [-]: NAMECALL R22 R2 K50; var23 = var2; var22 = var2[0x47901F07]
     113 [-]: CALL R22 4 2 ; var22 = var22(var23, var24, var25)
     114 [-]: GETIMPORT R23 2; var23 = 0x89326C93
     115 [-]: NAMECALL R23 R23 K51; var24 = var23; var23 = var23[0x7C1A0374]
     116 [-]: CALL R23 2 2 ; var23 = var23(var24)
     117 [-]: GETTABLEKS R24 R23 K52; var24 = var23["postProcessBias"]
     118 [-]: LOADN R27 6  ; var27 = 6
     119 [-]: LOADN R28 6  ; var28 = 6
     120 [-]: NAMECALL R25 R24 K53; var26 = var24; var25 = var24[0x67E10AA2]
     121 [-]: CALL R25 4 1 ; var25(var26, var27, var28)
     122 [-]: LOADB R25 0  ; var25 = false
     123 [-]: LOADB R26 0  ; var26 = false
     124 [-]: LOADN R27 0  ; var27 = 0
L 3: 125 [-]: LOADN R28 1  ; var28 = 1
     126 [-]: JUMPIFNOTLT R27 R28 L15; goto L15 if var27 >= var3611726
     127 [-]: GETIMPORT R28 55; var28 = 0xCBD666E1
     128 [-]: LOADN R29 0  ; var29 = 0
     129 [-]: CALL R28 2 1 ; var28(var29)
     130 [-]: GETUPVAL R28 2; var28 = upvalues[2]
     131 [-]: LOADB R29 0  ; var29 = false
     132 [-]: CALL R28 2 1 ; var28(var29)
     133 [-]: GETIMPORT R29 57; var29 = 0x67652851
     134 [-]: CALL R29 1 2 ; var29 = var29()
     135 [-]: DIV R28 R29 R19; var28 = var29 / var19
     136 [-]: ADD R27 R27 R28; var27 = var27 + var28
     137 [-]: GETIMPORT R28 59; var28 = 0xA533083A
     138 [-]: GETIMPORT R29 38; var29 = 0x42DCC9F5
     139 [-]: MOVE R30 R27 ; var30 = var27
     140 [-]: LOADN R31 0  ; var31 = 0
     141 [-]: LOADN R32 1  ; var32 = 1
     142 [-]: CALL R29 4 0 ; var29, ... = var29(var30, var31, var32)
     143 [-]: CALL R28 0 2 ; var28 = var28(var29, ...)
     144 [-]: GETIMPORT R29 59; var29 = 0xA533083A
     145 [-]: GETIMPORT R30 38; var30 = 0x42DCC9F5
     146 [-]: DIVK R31 R27 K60; var31 = var27 / 0.20000000000000001
     147 [-]: LOADN R32 0  ; var32 = 0
     148 [-]: LOADN R33 1  ; var33 = 1
     149 [-]: CALL R30 4 0 ; var30, ... = var30(var31, var32, var33)
     150 [-]: CALL R29 0 2 ; var29 = var29(var30, ...)
     151 [-]: LOADK R30 K61; var30 = 0.5
     152 [-]: JUMPIFNOTLT R27 R30 L4; goto L4 if var27 >= var2236494
     153 [-]: GETIMPORT R32 34; var32 = 0x9BAFFFE3
     154 [-]: MOVE R33 R15 ; var33 = var15
     155 [-]: MOVE R34 R14 ; var34 = var14
     156 [-]: MOVE R35 R29 ; var35 = var29
     157 [-]: CALL R32 4 0 ; var32, ... = var32(var33, var34, var35)
     158 [-]: NAMECALL R30 R13 K26; var31 = var13; var30 = var13[0xACEA6D71]
     159 [-]: CALL R30 0 1 ; var30(var31, ...)
     160 [-]: JUMP L5      ; goto L5
L 4: 161 [-]: GETIMPORT R30 59; var30 = 0xA533083A
     162 [-]: GETIMPORT R31 38; var31 = 0x42DCC9F5
     163 [-]: SUBK R33 R27 K62; var33 = var27 - 0.80000000000000004
     164 [-]: DIVK R32 R33 K60; var32 = var33 / 0.20000000000000001
     165 [-]: LOADN R33 0  ; var33 = 0
     166 [-]: LOADN R34 1  ; var34 = 1
     167 [-]: CALL R31 4 0 ; var31, ... = var31(var32, var33, var34)
     168 [-]: CALL R30 0 2 ; var30 = var30(var31, ...)
     169 [-]: MOVE R29 R30 ; var29 = var30
     170 [-]: GETIMPORT R32 34; var32 = 0x9BAFFFE3
     171 [-]: MOVE R33 R14 ; var33 = var14
     172 [-]: MOVE R34 R16 ; var34 = var16
     173 [-]: MOVE R35 R29 ; var35 = var29
     174 [-]: CALL R32 4 0 ; var32, ... = var32(var33, var34, var35)
     175 [-]: NAMECALL R30 R13 K26; var31 = var13; var30 = var13[0xACEA6D71]
     176 [-]: CALL R30 0 1 ; var30(var31, ...)
L 5: 177 [-]: GETIMPORT R30 34; var30 = 0x9BAFFFE3
     178 [-]: GETTABLEKS R31 R10 K17; var31 = var10["bank"]
     179 [-]: LOADN R32 0  ; var32 = 0
     180 [-]: MOVE R33 R28 ; var33 = var28
     181 [-]: CALL R30 4 2 ; var30 = var30(var31, var32, var33)
     182 [-]: SETTABLEKS R30 R11 K17; var30["bank"] = var11
     183 [-]: GETIMPORT R30 38; var30 = 0x42DCC9F5
     184 [-]: LOADN R32 1  ; var32 = 1
     185 [-]: SUBK R35 R28 K61; var35 = var28 - 0.5
     186 [-]: MULK R34 R35 K63; var34 = var35 * 2
     187 [-]: FASTCALL1 2 R34 L6; 
     188 [-]: GETIMPORT R33 66; var33 = 0x5BCED4C4[0xE4A5B3CA]
     189 [-]: CALL R33 2 2 ; var33 = var33(var34)
L 6: 190 [-]: SUB R31 R32 R33; var31 = var32 - var33
     191 [-]: LOADN R32 0  ; var32 = 0
     192 [-]: LOADN R33 1  ; var33 = 1
     193 [-]: CALL R30 4 2 ; var30 = var30(var31, var32, var33)
     194 [-]: GETIMPORT R31 38; var31 = 0x42DCC9F5
     195 [-]: MUL R36 R28 R28; var36 = var28 * var28
     196 [-]: SUB R35 R28 R36; var35 = var28 - var36
     197 [-]: FASTCALL2K 21 R35 K61 L7; 
     198 [-]: LOADK R36 K61; var36 = 0.5
     199 [-]: GETIMPORT R34 68; var34 = 0x5BCED4C4[0xA40531D8]
     200 [-]: CALL R34 3 2 ; var34 = var34(var35, var36)
L 7: 201 [-]: MULK R33 R34 K63; var33 = var34 * 2
     202 [-]: FASTCALL1 2 R33 L8; 
     203 [-]: GETIMPORT R32 66; var32 = 0x5BCED4C4[0xE4A5B3CA]
     204 [-]: CALL R32 2 2 ; var32 = var32(var33)
L 8: 205 [-]: LOADN R33 0  ; var33 = 0
     206 [-]: LOADN R34 1  ; var34 = 1
     207 [-]: CALL R31 4 2 ; var31 = var31(var32, var33, var34)
     208 [-]: GETIMPORT R32 38; var32 = 0x42DCC9F5
     209 [-]: LOADK R35 K60; var35 = 0.20000000000000001
     210 [-]: MUL R34 R35 R30; var34 = var35 * var30
     211 [-]: ADD R33 R28 R34; var33 = var28 + var34
     212 [-]: LOADN R34 0  ; var34 = 0
     213 [-]: LOADN R35 1  ; var35 = 1
     214 [-]: CALL R32 4 2 ; var32 = var32(var33, var34, var35)
     215 [-]: GETIMPORT R35 70; var35 = 0x5DB3CE80
     216 [-]: MOVE R36 R9  ; var36 = var9
     217 [-]: MOVE R37 R20 ; var37 = var20
     218 [-]: MOVE R38 R28 ; var38 = var28
     219 [-]: CALL R35 4 2 ; var35 = var35(var36, var37, var38)
     220 [-]: MOVE R36 R10 ; var36 = var10
     221 [-]: NAMECALL R33 R13 K71; var34 = var13; var33 = var13[0x589EF1C1]
     222 [-]: CALL R33 4 1 ; var33(var34, var35, var36)
     223 [-]: GETIMPORT R35 70; var35 = 0x5DB3CE80
     224 [-]: MOVE R36 R5  ; var36 = var5
     225 [-]: MOVE R37 R7  ; var37 = var7
     226 [-]: MOVE R38 R32 ; var38 = var32
     227 [-]: CALL R35 4 2 ; var35 = var35(var36, var37, var38)
     228 [-]: MOVE R36 R12 ; var36 = var12
     229 [-]: NAMECALL R33 R2 K71; var34 = var2; var33 = var2[0x589EF1C1]
     230 [-]: CALL R33 4 1 ; var33(var34, var35, var36)
     231 [-]: FASTCALL1 62 R24 L9; 
     232 [-]: MOVE R34 R24 ; var34 = var24
     233 [-]: GETIMPORT R33 25; var33 = 0x7B998233
     234 [-]: CALL R33 2 2 ; var33 = var33(var34)
L 9: 235 [-]: JUMPIF R33 L10; goto L10 if var33
     236 [-]: GETIMPORT R33 34; var33 = 0x9BAFFFE3
     237 [-]: LOADN R34 0  ; var34 = 0
     238 [-]: LOADN R35 -1 ; var35 = -1
     239 [-]: MOVE R36 R31 ; var36 = var31
     240 [-]: CALL R33 4 2 ; var33 = var33(var34, var35, var36)
     241 [-]: SETTABLEKS R33 R24 K72; var33["saturation"] = var24
     242 [-]: SETTABLEKS R31 R24 K73; var31["radialBlurStrength"] = var24
L10: 243 [-]: GETIMPORT R33 75; var33 = 0xC5883DAA
     244 [-]: JUMPIFNOTLE R33 R27 L12; goto L12 if var33 > var1251652
     245 [-]: JUMPIF R25 L12; goto L12 if var25
     246 [-]: GETIMPORT R34 77; var34 = 0x3B65D85C
     247 [-]: FASTCALL1 62 R34 L11; 
     248 [-]: GETIMPORT R33 25; var33 = 0x7B998233
     249 [-]: CALL R33 2 2 ; var33 = var33(var34)
L11: 250 [-]: JUMPIF R33 L12; goto L12 if var33
     251 [-]: GETIMPORT R33 2; var33 = 0x89326C93
     252 [-]: GETIMPORT R35 77; var35 = 0x3B65D85C
     253 [-]: GETIMPORT R36 6; var36 = ZERO_VECTOR
     254 [-]: LOADB R37 0  ; var37 = false
     255 [-]: LOADN R38 1  ; var38 = 1
     256 [-]: NAMECALL R33 R33 K7; var34 = var33; var33 = var33[0x659D451F]
     257 [-]: CALL R33 6 1 ; var33(var34, var35, var36, var37, var38)
     258 [-]: LOADB R25 1  ; var25 = true
L12: 259 [-]: GETIMPORT R33 80; var33 = _T["Chimera_CancelWarpAtDelta"]
     260 [-]: JUMPIF R33 L13; goto L13 if var33
     261 [-]: LOADK R33 K81; var33 = 3.4028234663852886e+38
L13: 262 [-]: JUMPIFNOTLT R33 R28 L14; goto L14 if var33 >= var72219
     263 [-]: LOADB R26 1  ; var26 = true
     264 [-]: JUMP L15     ; goto L15
L14: 265 [-]: JUMPBACK L3  ; goto L3
L15: 266 [-]: MOVE R28 R26 ; var28 = var26
     267 [-]: JUMPIF R28 L18; goto L18 if var28
     268 [-]: GETIMPORT R29 80; var29 = _T["Chimera_CancelWarpAtDelta"]
     269 [-]: JUMPIF R29 L16; goto L16 if var29
     270 [-]: LOADK R29 K81; var29 = 3.4028234663852886e+38
L16: 271 [-]: LOADN R30 1  ; var30 = 1
     272 [-]: JUMPIFLE R29 R30 L17; goto L17 if var29 <= var16784411
     273 [-]: LOADB R28 0 +1; var28 = false
L17: 274 [-]: LOADB R28 1  ; var28 = true
L18: 275 [-]: MOVE R26 R28 ; var26 = var28
     276 [-]: FASTCALL1 62 R24 L19; 
     277 [-]: MOVE R29 R24 ; var29 = var24
     278 [-]: GETIMPORT R28 25; var28 = 0x7B998233
     279 [-]: CALL R28 2 2 ; var28 = var28(var29)
L19: 280 [-]: JUMPIF R28 L20; goto L20 if var28
     281 [-]: LOADN R28 0  ; var28 = 0
     282 [-]: SETTABLEKS R28 R24 K72; var28["saturation"] = var24
     283 [-]: LOADN R28 0  ; var28 = 0
     284 [-]: SETTABLEKS R28 R24 K73; var28["radialBlurStrength"] = var24
L20: 285 [-]: MOVE R30 R7  ; var30 = var7
     286 [-]: MOVE R31 R8  ; var31 = var8
     287 [-]: NAMECALL R28 R2 K71; var29 = var2; var28 = var2[0x589EF1C1]
     288 [-]: CALL R28 4 1 ; var28(var29, var30, var31)
     289 [-]: NAMECALL R28 R2 K41; var29 = var2; var28 = var2[0x020D4331]
     290 [-]: CALL R28 2 2 ; var28 = var28(var29)
     291 [-]: MOVE R30 R8  ; var30 = var8
     292 [-]: NAMECALL R28 R28 K42; var29 = var28; var28 = var28[0x553549E8]
     293 [-]: CALL R28 3 1 ; var28(var29, var30)
     294 [-]: GETIMPORT R30 83; var30 = 0x2736FB17
     295 [-]: LOADB R31 0  ; var31 = false
     296 [-]: LOADN R32 3  ; var32 = 3
     297 [-]: LOADN R33 2  ; var33 = 2
     298 [-]: LOADB R34 1  ; var34 = true
     299 [-]: NAMECALL R28 R2 K45; var29 = var2; var28 = var2[0x5D985C7E]
     300 [-]: CALL R28 7 1 ; var28(var29, var30, var31, var32, var33, var34)
     301 [-]: GETIMPORT R30 85; var30 = ZERO_ROTATION
     302 [-]: NAMECALL R28 R1 K86; var29 = var1; var28 = var1[0xD5F884A6]
     303 [-]: CALL R28 3 1 ; var28(var29, var30)
     304 [-]: JUMPIF R26 L23; goto L23 if var26
     305 [-]: LOADN R27 0  ; var27 = 0
L21: 306 [-]: LOADN R28 1  ; var28 = 1
     307 [-]: JUMPIFNOTLT R27 R28 L23; goto L23 if var27 >= var3611726
     308 [-]: GETIMPORT R28 55; var28 = 0xCBD666E1
     309 [-]: LOADN R29 0  ; var29 = 0
     310 [-]: CALL R28 2 1 ; var28(var29)
     311 [-]: GETUPVAL R28 2; var28 = upvalues[2]
     312 [-]: LOADB R29 0  ; var29 = false
     313 [-]: CALL R28 2 1 ; var28(var29)
     314 [-]: GETIMPORT R29 57; var29 = 0x67652851
     315 [-]: CALL R29 1 2 ; var29 = var29()
     316 [-]: DIVK R28 R29 K61; var28 = var29 / 0.5
     317 [-]: ADD R27 R27 R28; var27 = var27 + var28
     318 [-]: GETIMPORT R28 59; var28 = 0xA533083A
     319 [-]: LOADN R30 1  ; var30 = 1
     320 [-]: GETIMPORT R31 38; var31 = 0x42DCC9F5
     321 [-]: LOADN R34 1  ; var34 = 1
     322 [-]: SUB R33 R34 R27; var33 = var34 - var27
     323 [-]: FASTCALL2K 21 R33 K87 L22; 
     324 [-]: LOADK R34 K87; var34 = 3
     325 [-]: GETIMPORT R32 68; var32 = 0x5BCED4C4[0xA40531D8]
     326 [-]: CALL R32 3 2 ; var32 = var32(var33, var34)
L22: 327 [-]: LOADN R33 0  ; var33 = 0
     328 [-]: LOADN R34 1  ; var34 = 1
     329 [-]: CALL R31 4 2 ; var31 = var31(var32, var33, var34)
     330 [-]: SUB R29 R30 R31; var29 = var30 - var31
     331 [-]: CALL R28 2 2 ; var28 = var28(var29)
     332 [-]: MOVE R31 R20 ; var31 = var20
     333 [-]: GETIMPORT R32 89; var32 = 0x5E223E7D
     334 [-]: MOVE R33 R10 ; var33 = var10
     335 [-]: MOVE R34 R21 ; var34 = var21
     336 [-]: MOVE R35 R28 ; var35 = var28
     337 [-]: CALL R32 4 0 ; var32, ... = var32(var33, var34, var35)
     338 [-]: NAMECALL R29 R13 K71; var30 = var13; var29 = var13[0x589EF1C1]
     339 [-]: CALL R29 0 1 ; var29(var30, ...)
     340 [-]: JUMPBACK L21 ; goto L21
L23: 341 [-]: FASTCALL1 62 R3 L24; 
     342 [-]: MOVE R29 R3  ; var29 = var3
     343 [-]: GETIMPORT R28 25; var28 = 0x7B998233
     344 [-]: CALL R28 2 2 ; var28 = var28(var29)
L24: 345 [-]: JUMPIF R28 L25; goto L25 if var28
     346 [-]: LOADN R30 0  ; var30 = 0
     347 [-]: NAMECALL R28 R3 K29; var29 = var3; var28 = var3[0x68F07B6A]
     348 [-]: CALL R28 3 1 ; var28(var29, var30)
     349 [-]: MOVE R30 R1  ; var30 = var1
     350 [-]: NAMECALL R28 R3 K30; var29 = var3; var28 = var3[0x14C7F7DD]
     351 [-]: CALL R28 3 1 ; var28(var29, var30)
     352 [-]: MOVE R30 R4  ; var30 = var4
     353 [-]: NAMECALL R28 R3 K29; var29 = var3; var28 = var3[0x68F07B6A]
     354 [-]: CALL R28 3 1 ; var28(var29, var30)
     355 [-]: MOVE R30 R17 ; var30 = var17
     356 [-]: NAMECALL R28 R3 K28; var29 = var3; var28 = var3[0xDA2DE8A7]
     357 [-]: CALL R28 3 1 ; var28(var29, var30)
L25: 358 [-]: NAMECALL R28 R13 K90; var29 = var13; var28 = var13[0xA2880940]
     359 [-]: CALL R28 2 1 ; var28(var29)
     360 [-]: FASTCALL1 62 R22 L26; 
     361 [-]: MOVE R29 R22 ; var29 = var22
     362 [-]: GETIMPORT R28 25; var28 = 0x7B998233
     363 [-]: CALL R28 2 2 ; var28 = var28(var29)
L26: 364 [-]: JUMPIF R28 L27; goto L27 if var28
     365 [-]: NAMECALL R28 R22 K90; var29 = var22; var28 = var22[0xA2880940]
     366 [-]: CALL R28 2 1 ; var28(var29)
L27: 367 [-]: SETUPVAL R1 1; upvalues[1] = var1
     368 [-]: RETURN R0 0  ; 


; Name:            
; Defined at line: 212
; #Upvalues:       2
; #Parameters:     1
; Is_vararg:       0
; Max Stack Size:  18

       0 [-]: GETIMPORT R1 1; var1 = 0xA421AF95
       1 [-]: CALL R1 1 2  ; var1 = var1()
       2 [-]: GETIMPORT R4 3; var4 = gCameraSpotType
       3 [-]: NAMECALL R2 R0 K4; var3 = var0; var2 = var0[0xC9F6A7D7]
       4 [-]: CALL R2 3 2  ; var2 = var2(var3, var4)
       5 [-]: NAMECALL R3 R2 K5; var4 = var2; var3 = var2[0xF6EBD926]
       6 [-]: CALL R3 2 2  ; var3 = var3(var4)
       7 [-]: NEWTABLE R4 0 0; var4 = {}
       8 [-]: GETIMPORT R5 7; var5 = 0xC8802016
       9 [-]: GETUPVAL R6 0; var6 = upvalues[0]
      10 [-]: CALL R5 2 4  ; var5, var6, var7 = var5(var6)
      11 [-]: FORGPREP_INEXT R5 L1; 
L 0:  12 [-]: JUMPIFEQ R9 R0 L1; goto L1 if var9 == var-16184763
      13 [-]: NAMECALL R10 R9 K8; var11 = var9; var10 = var9[0xF37943FF]
      14 [-]: CALL R10 2 2 ; var10 = var10(var11)
      15 [-]: JUMPIFNOT R10 L1; goto L1 if not var10
      16 [-]: GETIMPORT R10 10; var10 = 0x89326C93
      17 [-]: MOVE R12 R3  ; var12 = var3
      18 [-]: NAMECALL R14 R9 K5; var15 = var9; var14 = var9[0xF6EBD926]
      19 [-]: CALL R14 2 2 ; var14 = var14(var15)
      20 [-]: GETUPVAL R15 1; var15 = upvalues[1]
      21 [-]: ADD R13 R14 R15; var13 = var14 + var15
      22 [-]: LOADNIL R14  ; var14 = nil
      23 [-]: LOADNIL R15  ; var15 = nil
      24 [-]: MOVE R16 R1  ; var16 = var1
      25 [-]: LOADB R17 1  ; var17 = true
      26 [-]: NAMECALL R10 R10 K11; var11 = var10; var10 = var10[0xBD5D0EC1]
      27 [-]: CALL R10 8 2 ; var10 = var10(var11, var12, var13, var14, var15, var16, var17)
      28 [-]: JUMPIF R10 L1; goto L1 if var10
      29 [-]: FASTCALL2 52 R4 R9 L1; 
      30 [-]: MOVE R11 R4  ; var11 = var4
      31 [-]: MOVE R12 R9  ; var12 = var9
      32 [-]: GETIMPORT R10 14; var10 = 0x33BDD652[0x23D5322F]
      33 [-]: CALL R10 3 1 ; var10(var11, var12)
L 1:  34 [-]: FORGLOOP R5 L0 2 [inext]; 
      35 [-]: RETURN R4 1  ; 


; Name:            
; Defined at line: 227
; #Upvalues:       4
; #Parameters:     1
; Is_vararg:       0
; Max Stack Size:  13

       0 [-]: GETIMPORT R1 1; var1 = 0xC8802016
       1 [-]: GETUPVAL R2 0; var2 = upvalues[0]
       2 [-]: CALL R1 2 4  ; var1, var2, var3 = var1(var2)
       3 [-]: FORGPREP_INEXT R1 L2; 
L 0:   4 [-]: FASTCALL1 62 R5 L1; 
       5 [-]: MOVE R7 R5   ; var7 = var5
       6 [-]: GETIMPORT R6 3; var6 = 0x7B998233
       7 [-]: CALL R6 2 2  ; var6 = var6(var7)
L 1:   8 [-]: JUMPIF R6 L2 ; goto L2 if var6
       9 [-]: NAMECALL R6 R5 K4; var7 = var5; var6 = var5[0xA2880940]
      10 [-]: CALL R6 2 1  ; var6(var7)
L 2:  11 [-]: FORGLOOP R1 L0 2 [inext]; 
      12 [-]: JUMPXEQKNIL R0 L3; 
      13 [-]: GETIMPORT R1 6; var1 = 0x4EC73E73
      14 [-]: MOVE R2 R0   ; var2 = var0
      15 [-]: CALL R1 2 2  ; var1 = var1(var2)
      16 [-]: JUMPXEQKNIL R1 L4 NOT; 
L 3:  17 [-]: LOADNIL R1   ; var1 = nil
      18 [-]: SETUPVAL R1 1; upvalues[1] = var1
      19 [-]: LOADNIL R1   ; var1 = nil
      20 [-]: SETUPVAL R1 0; upvalues[1] = var0
      21 [-]: LOADNIL R1   ; var1 = nil
      22 [-]: SETUPVAL R1 2; upvalues[1] = var2
      23 [-]: RETURN R0 0  ; 
L 4:  24 [-]: GETUPVAL R1 3; var1 = upvalues[3]
      25 [-]: SETUPVAL R0 1; upvalues[0] = var1
      26 [-]: NEWTABLE R2 0 0; var2 = {}
      27 [-]: SETUPVAL R2 0; upvalues[2] = var0
      28 [-]: NEWTABLE R2 0 0; var2 = {}
      29 [-]: SETUPVAL R2 2; upvalues[2] = var2
      30 [-]: LOADN R4 1   ; var4 = 1
      31 [-]: GETIMPORT R5 9; var5 = 0x33BDD652[0x59B0BC8A]
      32 [-]: GETUPVAL R6 1; var6 = upvalues[1]
      33 [-]: CALL R5 2 2  ; var5 = var5(var6)
      34 [-]: MOVE R2 R5   ; var2 = var5
      35 [-]: LOADN R3 1   ; var3 = 1
      36 [-]: FORNPREP R2 L8; nforprep start - [escape at L8] -- var2 = iterator
L 5:  37 [-]: GETUPVAL R6 1; var6 = upvalues[1]
      38 [-]: GETTABLE R5 R6 R4; var5 = var6[var4]
      39 [-]: FASTCALL1 62 R5 L6; 
      40 [-]: MOVE R9 R5   ; var9 = var5
      41 [-]: GETIMPORT R8 3; var8 = 0x7B998233
      42 [-]: CALL R8 2 2  ; var8 = var8(var9)
L 6:  43 [-]: NOT R7 R8    ; var7 = not var8
      44 [-]: FASTCALL1 1 R7 L7; 
      45 [-]: GETIMPORT R6 11; var6 = 0x60CCE7B4
      46 [-]: CALL R6 2 1  ; var6(var7)
L 7:  47 [-]: NAMECALL R6 R5 K12; var7 = var5; var6 = var5[0xF6EBD926]
      48 [-]: CALL R6 2 2  ; var6 = var6(var7)
      49 [-]: GETUPVAL R7 0; var7 = upvalues[0]
      50 [-]: GETIMPORT R8 14; var8 = 0x89326C93
      51 [-]: GETIMPORT R10 16; var10 = 0x8B141950
      52 [-]: MOVE R11 R6  ; var11 = var6
      53 [-]: GETIMPORT R12 18; var12 = ZERO_ROTATION
      54 [-]: NAMECALL R8 R8 K19; var9 = var8; var8 = var8[0x05909209]
      55 [-]: CALL R8 5 2  ; var8 = var8(var9, var10, var11, var12)
      56 [-]: SETTABLE R8 R7 R4; var8[var7] = var4
      57 [-]: GETTABLEKS R8 R6 K21; var8 = var6["y"]
      58 [-]: ADDK R7 R8 K20; var7 = var8 + 1
      59 [-]: SETTABLEKS R7 R6 K21; var7["y"] = var6
      60 [-]: GETIMPORT R7 23; var7 = 0x83DDCC65
      61 [-]: MOVE R8 R6   ; var8 = var6
      62 [-]: MOVE R9 R6   ; var9 = var6
      63 [-]: NAMECALL R10 R1 K12; var11 = var1; var10 = var1[0xF6EBD926]
      64 [-]: CALL R10 2 0 ; var10, ... = var10(var11)
      65 [-]: CALL R7 0 1  ; var7(var8, ...)
      66 [-]: GETIMPORT R7 25; var7 = 0xC2892F65
      67 [-]: MOVE R8 R6   ; var8 = var6
      68 [-]: CALL R7 2 1  ; var7(var8)
      69 [-]: GETUPVAL R7 2; var7 = upvalues[2]
      70 [-]: SETTABLE R6 R7 R4; var6[var7] = var4
      71 [-]: FORNLOOP R2 L5; nforloop end - iterate + goto L5
L 8:  72 [-]: RETURN R0 0  ; 


; Name:            
; Defined at line: 262
; #Upvalues:       3
; #Parameters:     1
; Is_vararg:       0
; Max Stack Size:  6

       0 [-]: GETUPVAL R1 0; var1 = upvalues[0]
       1 [-]: JUMPIFEQ R1 R0 L4; goto L4 if var1 == var66055
       2 [-]: GETUPVAL R2 1; var2 = upvalues[1]
       3 [-]: FASTCALL1 62 R2 L0; 
       4 [-]: GETIMPORT R1 1; var1 = 0x7B998233
       5 [-]: CALL R1 2 2  ; var1 = var1(var2)
L 0:   6 [-]: JUMPIF R1 L1 ; goto L1 if var1
       7 [-]: GETUPVAL R1 1; var1 = upvalues[1]
       8 [-]: NAMECALL R1 R1 K2; var2 = var1; var1 = var1[0xA2880940]
       9 [-]: CALL R1 2 1  ; var1(var2)
      10 [-]: LOADNIL R1   ; var1 = nil
      11 [-]: SETUPVAL R1 1; upvalues[1] = var1
L 1:  12 [-]: FASTCALL1 62 R0 L2; 
      13 [-]: MOVE R2 R0   ; var2 = var0
      14 [-]: GETIMPORT R1 1; var1 = 0x7B998233
      15 [-]: CALL R1 2 2  ; var1 = var1(var2)
L 2:  16 [-]: JUMPIFNOT R1 L3; goto L3 if not var1
      17 [-]: GETIMPORT R1 5; var1 = _T["SetHudHintMessage"]
      18 [-]: CALL R1 1 1  ; var1()
      19 [-]: JUMP L4      ; goto L4
L 3:  20 [-]: GETIMPORT R1 7; var1 = 0x89326C93
      21 [-]: GETIMPORT R3 9; var3 = 0x2C291391
      22 [-]: GETUPVAL R4 2; var4 = upvalues[2]
      23 [-]: NAMECALL R4 R4 K10; var5 = var4; var4 = var4[0xD1586535]
      24 [-]: CALL R4 2 2  ; var4 = var4(var5)
      25 [-]: GETIMPORT R5 12; var5 = ZERO_ROTATION
      26 [-]: NAMECALL R1 R1 K13; var2 = var1; var1 = var1[0x05909209]
      27 [-]: CALL R1 5 2  ; var1 = var1(var2, var3, var4, var5)
      28 [-]: SETUPVAL R1 1; upvalues[1] = var1
      29 [-]: GETIMPORT R1 5; var1 = _T["SetHudHintMessage"]
      30 [-]: LOADK R2 K14 ; var2 = "/Lotus/Language/Chimera/StealthControlsHint"
      31 [-]: CALL R1 2 1  ; var1(var2)
L 4:  32 [-]: FASTCALL1 62 R0 L5; 
      33 [-]: MOVE R2 R0   ; var2 = var0
      34 [-]: GETIMPORT R1 1; var1 = 0x7B998233
      35 [-]: CALL R1 2 2  ; var1 = var1(var2)
L 5:  36 [-]: JUMPIF R1 L6 ; goto L6 if var1
      37 [-]: GETIMPORT R1 16; var1 = _T["SetHudHintPosWorld"]
      38 [-]: JUMPIFNOT R1 L6; goto L6 if not var1
      39 [-]: GETIMPORT R1 16; var1 = _T["SetHudHintPosWorld"]
      40 [-]: NAMECALL R2 R0 K10; var3 = var0; var2 = var0[0xD1586535]
      41 [-]: CALL R2 2 0  ; var2, ... = var2(var3)
      42 [-]: CALL R1 0 1  ; var1(var2, ...)
L 6:  43 [-]: SETUPVAL R0 0; upvalues[0] = var0
      44 [-]: RETURN R0 0  ; 


; Name:            
; Defined at line: 284
; #Upvalues:       12
; #Parameters:     3
; Is_vararg:       0
; Max Stack Size:  15

       0 [-]: LOADN R3 0   ; var3 = 0
       1 [-]: SETUPVAL R3 0; upvalues[3] = var0
       2 [-]: LOADNIL R3   ; var3 = nil
       3 [-]: SETUPVAL R3 1; upvalues[3] = var1
       4 [-]: GETUPVAL R3 2; var3 = upvalues[2]
       5 [-]: CALL R3 1 2  ; var3 = var3()
       6 [-]: NAMECALL R4 R3 K0; var5 = var3; var4 = var3[0x0B4BCFB6]
       7 [-]: CALL R4 2 2  ; var4 = var4(var5)
       8 [-]: NAMECALL R5 R3 K1; var6 = var3; var5 = var3[0x283A8730]
       9 [-]: CALL R5 2 1  ; var5(var6)
      10 [-]: GETUPVAL R5 3; var5 = upvalues[3]
      11 [-]: CALL R5 1 1  ; var5()
      12 [-]: LOADB R5 1   ; var5 = true
      13 [-]: SETUPVAL R5 4; upvalues[5] = var4
      14 [-]: GETUPVAL R5 5; var5 = upvalues[5]
      15 [-]: LOADNIL R6   ; var6 = nil
      16 [-]: CALL R5 2 1  ; var5(var6)
      17 [-]: GETIMPORT R5 4; var5 = _T["Chimera_StartWarpCallback"]
      18 [-]: JUMPIFNOT R5 L0; goto L0 if not var5
      19 [-]: GETIMPORT R5 4; var5 = _T["Chimera_StartWarpCallback"]
      20 [-]: GETUPVAL R6 6; var6 = upvalues[6]
      21 [-]: MOVE R7 R0   ; var7 = var0
      22 [-]: CALL R5 3 1  ; var5(var6, var7)
L 0:  23 [-]: FASTCALL1 62 R0 L1; 
      24 [-]: MOVE R6 R0   ; var6 = var0
      25 [-]: GETIMPORT R5 6; var5 = 0x7B998233
      26 [-]: CALL R5 2 2  ; var5 = var5(var6)
L 1:  27 [-]: JUMPIFNOT R5 L5; goto L5 if not var5
      28 [-]: NAMECALL R5 R4 K7; var6 = var4; var5 = var4[0xA72AFC7E]
      29 [-]: CALL R5 2 2  ; var5 = var5(var6)
      30 [-]: LOADN R8 0   ; var8 = 0
      31 [-]: NAMECALL R6 R4 K8; var7 = var4; var6 = var4[0x68F07B6A]
      32 [-]: CALL R6 3 1  ; var6(var7, var8)
      33 [-]: LOADNIL R8   ; var8 = nil
      34 [-]: NAMECALL R6 R4 K9; var7 = var4; var6 = var4[0x14C7F7DD]
      35 [-]: CALL R6 3 1  ; var6(var7, var8)
      36 [-]: MOVE R8 R5   ; var8 = var5
      37 [-]: NAMECALL R6 R4 K8; var7 = var4; var6 = var4[0x68F07B6A]
      38 [-]: CALL R6 3 1  ; var6(var7, var8)
      39 [-]: GETIMPORT R8 11; var8 = 0xACAA689C
      40 [-]: NAMECALL R6 R3 K12; var7 = var3; var6 = var3[0xAF7C1D8D]
      41 [-]: CALL R6 3 1  ; var6(var7, var8)
      42 [-]: LOADNIL R8   ; var8 = nil
      43 [-]: LOADB R9 0   ; var9 = false
      44 [-]: LOADN R10 2  ; var10 = 2
      45 [-]: LOADN R11 1  ; var11 = 1
      46 [-]: LOADB R12 1  ; var12 = true
      47 [-]: NAMECALL R6 R3 K13; var7 = var3; var6 = var3[0x5D985C7E]
      48 [-]: CALL R6 7 1  ; var6(var7, var8, var9, var10, var11, var12)
      49 [-]: LOADB R8 0   ; var8 = false
      50 [-]: NAMECALL R6 R3 K14; var7 = var3; var6 = var3[0xEC1EE87F]
      51 [-]: CALL R6 3 1  ; var6(var7, var8)
      52 [-]: GETIMPORT R8 16; var8 = 0xDC695B78
      53 [-]: NAMECALL R6 R3 K17; var7 = var3; var6 = var3[0xE985E1E0]
      54 [-]: CALL R6 3 2  ; var6 = var6(var7, var8)
L 2:  55 [-]: FASTCALL1 62 R6 L3; 
      56 [-]: MOVE R8 R6   ; var8 = var6
      57 [-]: GETIMPORT R7 6; var7 = 0x7B998233
      58 [-]: CALL R7 2 2  ; var7 = var7(var8)
L 3:  59 [-]: JUMPIF R7 L4 ; goto L4 if var7
      60 [-]: NAMECALL R7 R6 K18; var8 = var6; var7 = var6[0xA2880940]
      61 [-]: CALL R7 2 1  ; var7(var8)
      62 [-]: GETIMPORT R9 16; var9 = 0xDC695B78
      63 [-]: NAMECALL R7 R3 K17; var8 = var3; var7 = var3[0xE985E1E0]
      64 [-]: CALL R7 3 2  ; var7 = var7(var8, var9)
      65 [-]: MOVE R6 R7   ; var6 = var7
      66 [-]: JUMPBACK L2  ; goto L2
L 4:  67 [-]: LOADNIL R7   ; var7 = nil
      68 [-]: SETUPVAL R7 6; upvalues[7] = var6
      69 [-]: LOADNIL R7   ; var7 = nil
      70 [-]: SETUPVAL R7 7; upvalues[7] = var7
      71 [-]: RETURN R0 0  ; 
L 5:  72 [-]: NAMECALL R7 R0 K19; var8 = var0; var7 = var0[0xF6EBD926]
      73 [-]: CALL R7 2 2  ; var7 = var7(var8)
      74 [-]: MOVE R5 R7   ; var5 = var7
      75 [-]: NAMECALL R6 R0 K20; var7 = var0; var6 = var0[0x5280B883]
      76 [-]: CALL R6 2 2  ; var6 = var6(var7)
      77 [-]: GETIMPORT R9 22; var9 = gCameraSpotType
      78 [-]: NAMECALL R7 R0 K23; var8 = var0; var7 = var0[0xC9F6A7D7]
      79 [-]: CALL R7 3 2  ; var7 = var7(var8, var9)
      80 [-]: JUMPIFNOT R1 L7; goto L7 if not var1
      81 [-]: MOVE R10 R5  ; var10 = var5
      82 [-]: MOVE R11 R6  ; var11 = var6
      83 [-]: NAMECALL R8 R3 K24; var9 = var3; var8 = var3[0x589EF1C1]
      84 [-]: CALL R8 4 1  ; var8(var9, var10, var11)
      85 [-]: NAMECALL R8 R3 K25; var9 = var3; var8 = var3[0x020D4331]
      86 [-]: CALL R8 2 2  ; var8 = var8(var9)
      87 [-]: MOVE R10 R6  ; var10 = var6
      88 [-]: NAMECALL R8 R8 K26; var9 = var8; var8 = var8[0x553549E8]
      89 [-]: CALL R8 3 1  ; var8(var9, var10)
      90 [-]: MOVE R10 R2  ; var10 = var2
      91 [-]: JUMPIF R10 L6; goto L6 if var10
      92 [-]: GETIMPORT R10 28; var10 = 0x2736FB17
L 6:  93 [-]: LOADB R11 0  ; var11 = false
      94 [-]: LOADN R12 3  ; var12 = 3
      95 [-]: LOADN R13 2  ; var13 = 2
      96 [-]: LOADB R14 1  ; var14 = true
      97 [-]: NAMECALL R8 R3 K13; var9 = var3; var8 = var3[0x5D985C7E]
      98 [-]: CALL R8 7 1  ; var8(var9, var10, var11, var12, var13, var14)
      99 [-]: GETIMPORT R10 30; var10 = ZERO_ROTATION
     100 [-]: NAMECALL R8 R7 K31; var9 = var7; var8 = var7[0xD5F884A6]
     101 [-]: CALL R8 3 1  ; var8(var9, var10)
     102 [-]: NAMECALL R8 R4 K7; var9 = var4; var8 = var4[0xA72AFC7E]
     103 [-]: CALL R8 2 2  ; var8 = var8(var9)
     104 [-]: LOADN R11 0  ; var11 = 0
     105 [-]: NAMECALL R9 R4 K8; var10 = var4; var9 = var4[0x68F07B6A]
     106 [-]: CALL R9 3 1  ; var9(var10, var11)
     107 [-]: MOVE R11 R7  ; var11 = var7
     108 [-]: NAMECALL R9 R4 K9; var10 = var4; var9 = var4[0x14C7F7DD]
     109 [-]: CALL R9 3 1  ; var9(var10, var11)
     110 [-]: MOVE R11 R8  ; var11 = var8
     111 [-]: NAMECALL R9 R4 K8; var10 = var4; var9 = var4[0x68F07B6A]
     112 [-]: CALL R9 3 1  ; var9(var10, var11)
     113 [-]: GETIMPORT R9 33; var9 = 0xCBD666E1
     114 [-]: LOADN R10 0  ; var10 = 0
     115 [-]: CALL R9 2 1  ; var9(var10)
     116 [-]: JUMP L8      ; goto L8
L 7: 117 [-]: GETUPVAL R8 8; var8 = upvalues[8]
     118 [-]: MOVE R9 R0   ; var9 = var0
     119 [-]: MOVE R10 R7  ; var10 = var7
     120 [-]: CALL R8 3 1  ; var8(var9, var10)
L 8: 121 [-]: GETUPVAL R8 9; var8 = upvalues[9]
     122 [-]: JUMPIF R8 L9 ; goto L9 if var8
     123 [-]: GETUPVAL R8 10; var8 = upvalues[10]
     124 [-]: MOVE R9 R0   ; var9 = var0
     125 [-]: CALL R8 2 2  ; var8 = var8(var9)
L 9: 126 [-]: GETIMPORT R9 35; var9 = 0xBE190284
     127 [-]: NAMECALL R9 R9 K36; var10 = var9; var9 = var9[0xAE962FA0]
     128 [-]: CALL R9 2 2  ; var9 = var9(var10)
     129 [-]: SETUPVAL R9 11; upvalues[9] = var11
     130 [-]: SETUPVAL R0 6; upvalues[0] = var6
     131 [-]: SETUPVAL R7 7; upvalues[7] = var7
     132 [-]: GETUPVAL R9 3; var9 = upvalues[3]
     133 [-]: MOVE R10 R8  ; var10 = var8
     134 [-]: CALL R9 2 1  ; var9(var10)
     135 [-]: GETIMPORT R9 37; var9 = _T
     136 [-]: GETUPVAL R10 6; var10 = upvalues[6]
     137 [-]: SETTABLEKS R10 R9 K38; var10["Chimera_CurrentPoint"] = var9
     138 [-]: LOADB R9 0   ; var9 = false
     139 [-]: SETUPVAL R9 4; upvalues[9] = var4
     140 [-]: RETURN R0 0  ; 


; Name:            
; Defined at line: 358
; #Upvalues:       8
; #Parameters:     0
; Is_vararg:       0
; Max Stack Size:  10

       0 [-]: GETIMPORT R0 1; var0 = 0x492C7F2A
       1 [-]: GETUPVAL R1 0; var1 = upvalues[0]
       2 [-]: GETUPVAL R2 1; var2 = upvalues[1]
       3 [-]: CALL R2 1 2  ; var2 = var2()
       4 [-]: NAMECALL R2 R2 K2; var3 = var2; var2 = var2[0x0B4BCFB6]
       5 [-]: CALL R2 2 2  ; var2 = var2(var3)
       6 [-]: NAMECALL R2 R2 K3; var3 = var2; var2 = var2[0x4F92E6FD]
       7 [-]: CALL R2 2 0  ; var2, ... = var2(var3)
       8 [-]: CALL R0 0 2  ; var0 = var0(var1, ...)
       9 [-]: LOADNIL R1   ; var1 = nil
      10 [-]: SETUPVAL R1 2; upvalues[1] = var2
      11 [-]: LOADN R1 -1  ; var1 = -1
      12 [-]: GETIMPORT R2 5; var2 = 0xC8802016
      13 [-]: GETUPVAL R3 3; var3 = upvalues[3]
      14 [-]: CALL R2 2 4  ; var2, var3, var4 = var2(var3)
      15 [-]: FORGPREP_INEXT R2 L1; 
L 0:  16 [-]: GETIMPORT R7 7; var7 = 0x4FD57545
      17 [-]: MOVE R8 R0   ; var8 = var0
      18 [-]: MOVE R9 R6   ; var9 = var6
      19 [-]: CALL R7 3 2  ; var7 = var7(var8, var9)
      20 [-]: JUMPIFNOTLT R1 R7 L1; goto L1 if var1 >= var526341
      21 [-]: LOADK R8 K8  ; var8 = 0.98480775301220802
      22 [-]: JUMPIFNOTLE R8 R7 L1; goto L1 if var8 > var459030
      23 [-]: MOVE R1 R7   ; var1 = var7
      24 [-]: GETUPVAL R9 4; var9 = upvalues[4]
      25 [-]: GETTABLE R8 R9 R5; var8 = var9[var5]
      26 [-]: SETUPVAL R8 2; upvalues[8] = var2
L 1:  27 [-]: FORGLOOP R2 L0 2 [inext]; 
      28 [-]: LOADB R2 0   ; var2 = false
      29 [-]: GETIMPORT R4 10; var4 = 0xBE190284
      30 [-]: NAMECALL R4 R4 K11; var5 = var4; var4 = var4[0xAE962FA0]
      31 [-]: CALL R4 2 2  ; var4 = var4(var5)
      32 [-]: GETUPVAL R5 5; var5 = upvalues[5]
      33 [-]: SUB R3 R4 R5 ; var3 = var4 - var5
      34 [-]: LOADK R4 K12 ; var4 = 0.29999999999999999
      35 [-]: JUMPIFNOTLE R4 R3 L3; goto L3 if var4 > var132103
      36 [-]: GETUPVAL R4 2; var4 = upvalues[2]
      37 [-]: FASTCALL1 62 R4 L2; 
      38 [-]: GETIMPORT R3 14; var3 = 0x7B998233
      39 [-]: CALL R3 2 2  ; var3 = var3(var4)
L 2:  40 [-]: NOT R2 R3    ; var2 = not var3
L 3:  41 [-]: MOVE R3 R2   ; var3 = var2
      42 [-]: JUMPIFNOT R3 L4; goto L4 if not var3
      43 [-]: GETUPVAL R4 6; var4 = upvalues[6]
      44 [-]: NOT R3 R4    ; var3 = not var4
L 4:  45 [-]: JUMPIFNOT R3 L5; goto L5 if not var3
      46 [-]: GETUPVAL R4 7; var4 = upvalues[7]
      47 [-]: GETUPVAL R5 2; var5 = upvalues[2]
      48 [-]: CALL R4 2 1  ; var4(var5)
      49 [-]: RETURN R0 0  ; 
L 5:  50 [-]: GETUPVAL R4 7; var4 = upvalues[7]
      51 [-]: LOADNIL R5   ; var5 = nil
      52 [-]: CALL R4 2 1  ; var4(var5)
      53 [-]: RETURN R0 0  ; 


; Name:            
; Defined at line: 382
; #Upvalues:       2
; #Parameters:     1
; Is_vararg:       0
; Max Stack Size:  8

       0 [-]: JUMPIFNOT R0 L3; goto L3 if not var0
       1 [-]: GETUPVAL R1 0; var1 = upvalues[0]
       2 [-]: GETUPVAL R3 1; var3 = upvalues[1]
       3 [-]: GETIMPORT R4 1; var4 = 0x77ABE9C9
       4 [-]: ADD R2 R3 R4 ; var2 = var3 + var4
       5 [-]: GETIMPORT R3 3; var3 = 0xBE190284
       6 [-]: NAMECALL R3 R3 K4; var4 = var3; var3 = var3[0xAE962FA0]
       7 [-]: CALL R3 2 2  ; var3 = var3(var4)
       8 [-]: JUMPIFNOTLT R2 R3 L0; goto L0 if var2 >= var393806
       9 [-]: GETIMPORT R2 6; var2 = 0x42DCC9F5
      10 [-]: GETUPVAL R4 0; var4 = upvalues[0]
      11 [-]: GETIMPORT R7 9; var7 = 0xE9345B3B
      12 [-]: MULK R6 R7 K7; var6 = var7 * 5
      13 [-]: GETIMPORT R7 11; var7 = 0x67652851
      14 [-]: CALL R7 1 2  ; var7 = var7()
      15 [-]: MUL R5 R6 R7 ; var5 = var6 * var7
      16 [-]: SUB R3 R4 R5 ; var3 = var4 - var5
      17 [-]: LOADN R4 0   ; var4 = 0
      18 [-]: LOADN R5 5   ; var5 = 5
      19 [-]: CALL R2 4 2  ; var2 = var2(var3, var4, var5)
      20 [-]: SETUPVAL R2 0; upvalues[2] = var0
L 0:  21 [-]: FASTCALL1 12 R1 L1; 
      22 [-]: MOVE R3 R1   ; var3 = var1
      23 [-]: GETIMPORT R2 14; var2 = 0x5BCED4C4[0x55F27C30]
      24 [-]: CALL R2 2 2  ; var2 = var2(var3)
L 1:  25 [-]: GETUPVAL R4 0; var4 = upvalues[0]
      26 [-]: FASTCALL1 12 R4 L2; 
      27 [-]: GETIMPORT R3 14; var3 = 0x5BCED4C4[0x55F27C30]
      28 [-]: CALL R3 2 2  ; var3 = var3(var4)
L 2:  29 [-]: JUMPIFNOTLT R3 R2 L5; goto L5 if var3 >= var197198
      30 [-]: GETIMPORT R2 3; var2 = 0xBE190284
      31 [-]: NAMECALL R2 R2 K4; var3 = var2; var2 = var2[0xAE962FA0]
      32 [-]: CALL R2 2 2  ; var2 = var2(var3)
      33 [-]: SETUPVAL R2 1; upvalues[2] = var1
      34 [-]: JUMP L5      ; goto L5
L 3:  35 [-]: GETIMPORT R2 18; var2 = _T["Chimera_DetectionAmount"]
      36 [-]: ORK R1 R2 K15; var1 = var2 or 0
      37 [-]: LOADN R2 0   ; var2 = 0
      38 [-]: JUMPIFNOTLE R1 R2 L5; goto L5 if var1 > var393550
      39 [-]: GETIMPORT R1 6; var1 = 0x42DCC9F5
      40 [-]: GETUPVAL R3 0; var3 = upvalues[0]
      41 [-]: GETIMPORT R6 20; var6 = 0xDC78F128
      42 [-]: MULK R5 R6 K7; var5 = var6 * 5
      43 [-]: GETIMPORT R6 11; var6 = 0x67652851
      44 [-]: CALL R6 1 2  ; var6 = var6()
      45 [-]: MUL R4 R5 R6 ; var4 = var5 * var6
      46 [-]: ADD R2 R3 R4 ; var2 = var3 + var4
      47 [-]: LOADN R3 0   ; var3 = 0
      48 [-]: GETUPVAL R7 0; var7 = upvalues[0]
      49 [-]: SUBK R6 R7 K22; var6 = var7 - 0.001
      50 [-]: FASTCALL1 12 R6 L4; 
      51 [-]: GETIMPORT R5 14; var5 = 0x5BCED4C4[0x55F27C30]
      52 [-]: CALL R5 2 2  ; var5 = var5(var6)
L 4:  53 [-]: ADDK R4 R5 K21; var4 = var5 + 1
      54 [-]: CALL R1 4 2  ; var1 = var1(var2, var3, var4)
      55 [-]: SETUPVAL R1 0; upvalues[1] = var0
L 5:  56 [-]: GETIMPORT R1 24; var1 = _T["DetectionHud_Info"]
      57 [-]: GETUPVAL R2 0; var2 = upvalues[0]
      58 [-]: SETTABLEKS R2 R1 K25; var2["Health"] = var1
      59 [-]: GETIMPORT R1 3; var1 = 0xBE190284
      60 [-]: GETIMPORT R3 27; var3 = 0x0469F296
      61 [-]: LOADK R4 K28 ; var4 = "DetectionHealth"
      62 [-]: CALL R3 2 2  ; var3 = var3(var4)
      63 [-]: GETUPVAL R4 0; var4 = upvalues[0]
      64 [-]: NAMECALL R1 R1 K29; var2 = var1; var1 = var1[0xC7A98999]
      65 [-]: CALL R1 4 1  ; var1(var2, var3, var4)
      66 [-]: GETUPVAL R2 0; var2 = upvalues[0]
      67 [-]: LOADN R3 0   ; var3 = 0
      68 [-]: JUMPIFLT R3 R2 L6; goto L6 if var3 < var16777499
      69 [-]: LOADB R1 0 +1; var1 = false
L 6:  70 [-]: LOADB R1 1   ; var1 = true
L 7:  71 [-]: RETURN R1 1  ; 


; Name:            
; Defined at line: 402
; #Upvalues:       0
; #Parameters:     0
; Is_vararg:       0
; Max Stack Size:  7

       0 [-]: GETIMPORT R1 1; var1 = 0x76906D48
       1 [-]: FASTCALL1 62 R1 L0; 
       2 [-]: GETIMPORT R0 3; var0 = 0x7B998233
       3 [-]: CALL R0 2 2  ; var0 = var0(var1)
L 0:   4 [-]: JUMPIF R0 L1 ; goto L1 if var0
       5 [-]: GETIMPORT R0 5; var0 = 0x89326C93
       6 [-]: GETIMPORT R2 1; var2 = 0x76906D48
       7 [-]: GETIMPORT R3 7; var3 = ZERO_VECTOR
       8 [-]: LOADB R4 0   ; var4 = false
       9 [-]: LOADN R5 1   ; var5 = 1
      10 [-]: NAMECALL R0 R0 K8; var1 = var0; var0 = var0[0x659D451F]
      11 [-]: CALL R0 6 1  ; var0(var1, var2, var3, var4, var5)
L 1:  12 [-]: GETIMPORT R0 5; var0 = 0x89326C93
      13 [-]: NAMECALL R0 R0 K9; var1 = var0; var0 = var0[0x7C1A0374]
      14 [-]: CALL R0 2 2  ; var0 = var0(var1)
      15 [-]: LOADN R1 0   ; var1 = 0
L 2:  16 [-]: LOADN R2 1   ; var2 = 1
      17 [-]: JUMPIFNOTLT R1 R2 L3; goto L3 if var1 >= var721486
      18 [-]: GETIMPORT R2 11; var2 = 0xCBD666E1
      19 [-]: LOADN R3 0   ; var3 = 0
      20 [-]: CALL R2 2 1  ; var2(var3)
      21 [-]: GETIMPORT R3 14; var3 = 0x67652851
      22 [-]: CALL R3 1 2  ; var3 = var3()
      23 [-]: DIVK R2 R3 K12; var2 = var3 / 0.59999999999999998
      24 [-]: ADD R1 R1 R2 ; var1 = var1 + var2
      25 [-]: GETIMPORT R2 16; var2 = 0xA533083A
      26 [-]: GETIMPORT R3 18; var3 = 0x42DCC9F5
      27 [-]: MOVE R4 R1   ; var4 = var1
      28 [-]: LOADN R5 0   ; var5 = 0
      29 [-]: LOADN R6 1   ; var6 = 1
      30 [-]: CALL R3 4 0  ; var3, ... = var3(var4, var5, var6)
      31 [-]: CALL R2 0 2  ; var2 = var2(var3, ...)
      32 [-]: MINUS R5 R2  ; 
      33 [-]: NAMECALL R3 R0 K19; var4 = var0; var3 = var0[0xB6DF3E50]
      34 [-]: CALL R3 3 1  ; var3(var4, var5)
      35 [-]: JUMPBACK L2  ; goto L2
L 3:  36 [-]: RETURN R0 0  ; 


; Name:            
; Defined at line: 420
; #Upvalues:       0
; #Parameters:     0
; Is_vararg:       0
; Max Stack Size:  7

       0 [-]: GETIMPORT R0 1; var0 = 0x89326C93
       1 [-]: NAMECALL R0 R0 K2; var1 = var0; var0 = var0[0x7C1A0374]
       2 [-]: CALL R0 2 2  ; var0 = var0(var1)
       3 [-]: LOADN R1 0   ; var1 = 0
L 0:   4 [-]: LOADN R2 1   ; var2 = 1
       5 [-]: JUMPIFNOTLT R1 R2 L1; goto L1 if var1 >= var262734
       6 [-]: GETIMPORT R2 4; var2 = 0xCBD666E1
       7 [-]: LOADN R3 0   ; var3 = 0
       8 [-]: CALL R2 2 1  ; var2(var3)
       9 [-]: GETIMPORT R3 7; var3 = 0x67652851
      10 [-]: CALL R3 1 2  ; var3 = var3()
      11 [-]: DIVK R2 R3 K5; var2 = var3 / 0.59999999999999998
      12 [-]: ADD R1 R1 R2 ; var1 = var1 + var2
      13 [-]: GETIMPORT R2 9; var2 = 0xA533083A
      14 [-]: GETIMPORT R3 11; var3 = 0x42DCC9F5
      15 [-]: MOVE R4 R1   ; var4 = var1
      16 [-]: LOADN R5 0   ; var5 = 0
      17 [-]: LOADN R6 1   ; var6 = 1
      18 [-]: CALL R3 4 0  ; var3, ... = var3(var4, var5, var6)
      19 [-]: CALL R2 0 2  ; var2 = var2(var3, ...)
      20 [-]: LOADN R6 -1  ; var6 = -1
      21 [-]: ADD R5 R6 R2 ; var5 = var6 + var2
      22 [-]: NAMECALL R3 R0 K12; var4 = var0; var3 = var0[0xB6DF3E50]
      23 [-]: CALL R3 3 1  ; var3(var4, var5)
      24 [-]: JUMPBACK L0  ; goto L0
L 1:  25 [-]: RETURN R0 0  ; 


; Name:            
; Defined at line: 435
; #Upvalues:       16
; #Parameters:     0
; Is_vararg:       0
; Max Stack Size:  14

       0 [-]: GETIMPORT R0 1; var0 = 0x0469F296
       1 [-]: LOADK R1 K2  ; var1 = "ChimeraCamera"
       2 [-]: CALL R0 2 2  ; var0 = var0(var1)
       3 [-]: GETIMPORT R1 4; var1 = 0x9BA7909F
       4 [-]: LOADK R3 K5  ; var3 = "PRE_ATTACK"
       5 [-]: NAMECALL R1 R1 K6; var2 = var1; var1 = var1[0xFBDF1860]
       6 [-]: CALL R1 3 2  ; var1 = var1(var2, var3)
       7 [-]: GETIMPORT R2 8; var2 = 0xBE190284
       8 [-]: NAMECALL R2 R2 K9; var3 = var2; var2 = var2[0x33307F92]
       9 [-]: CALL R2 2 2  ; var2 = var2(var3)
      10 [-]: SETUPVAL R2 0; upvalues[2] = var0
      11 [-]: GETUPVAL R2 1; var2 = upvalues[1]
      12 [-]: CALL R2 1 2  ; var2 = var2()
      13 [-]: GETIMPORT R3 11; var3 = 0x3492930F
      14 [-]: JUMPIFNOT R3 L6; goto L6 if not var3
      15 [-]: MOVE R3 R2   ; var3 = var2
      16 [-]: GETIMPORT R4 13; var4 = _T
      17 [-]: LOADB R5 1   ; var5 = true
      18 [-]: SETTABLEKS R5 R4 K14; var5["HideTransferenceFx"] = var4
      19 [-]: NAMECALL R4 R3 K15; var5 = var3; var4 = var3[0x18F03C5D]
      20 [-]: CALL R4 2 1  ; var4(var5)
L 0:  21 [-]: FASTCALL1 62 R2 L1; 
      22 [-]: MOVE R5 R2   ; var5 = var2
      23 [-]: GETIMPORT R4 17; var4 = 0x7B998233
      24 [-]: CALL R4 2 2  ; var4 = var4(var5)
L 1:  25 [-]: JUMPIF R4 L2 ; goto L2 if var4
      26 [-]: GETIMPORT R6 19; var6 = gLotusOperatorAvatarType
      27 [-]: NAMECALL R4 R2 K20; var5 = var2; var4 = var2[0xF2DEAF69]
      28 [-]: CALL R4 3 2  ; var4 = var4(var5, var6)
      29 [-]: JUMPIF R4 L3 ; goto L3 if var4
L 2:  30 [-]: GETIMPORT R4 22; var4 = 0xCBD666E1
      31 [-]: LOADN R5 0   ; var5 = 0
      32 [-]: CALL R4 2 1  ; var4(var5)
      33 [-]: GETUPVAL R4 1; var4 = upvalues[1]
      34 [-]: CALL R4 1 2  ; var4 = var4()
      35 [-]: MOVE R2 R4   ; var2 = var4
      36 [-]: JUMPBACK L0  ; goto L0
L 3:  37 [-]: FASTCALL1 62 R3 L4; 
      38 [-]: MOVE R5 R3   ; var5 = var3
      39 [-]: GETIMPORT R4 17; var4 = 0x7B998233
      40 [-]: CALL R4 2 2  ; var4 = var4(var5)
L 4:  41 [-]: JUMPIF R4 L5 ; goto L5 if var4
      42 [-]: LOADB R6 0   ; var6 = false
      43 [-]: LOADB R7 1   ; var7 = true
      44 [-]: NAMECALL R4 R3 K23; var5 = var3; var4 = var3[0x768274D6]
      45 [-]: CALL R4 4 1  ; var4(var5, var6, var7)
      46 [-]: GETIMPORT R6 1; var6 = 0x0469F296
      47 [-]: CALL R6 1 0  ; var6, ... = var6()
      48 [-]: NAMECALL R4 R3 K24; var5 = var3; var4 = var3[0x26D544FC]
      49 [-]: CALL R4 0 1  ; var4(var5, ...)
      50 [-]: GETIMPORT R6 1; var6 = 0x0469F296
      51 [-]: LOADK R7 K25 ; var7 = "Operator"
      52 [-]: CALL R6 2 0  ; var6, ... = var6(var7)
      53 [-]: NAMECALL R4 R2 K24; var5 = var2; var4 = var2[0x26D544FC]
      54 [-]: CALL R4 0 1  ; var4(var5, ...)
      55 [-]: LOADN R6 0   ; var6 = 0
      56 [-]: GETIMPORT R7 27; var7 = 0xB009BBC6
      57 [-]: LOADK R8 K28 ; var8 = "/Lotus/Fx/Levels/TheWarWithin/Cinematics/VoidEyesMat"
      58 [-]: CALL R7 2 2  ; var7 = var7(var8)
      59 [-]: LOADB R8 0   ; var8 = false
      60 [-]: NAMECALL R4 R2 K29; var5 = var2; var4 = var2[0xCDDC3ABB]
      61 [-]: CALL R4 5 1  ; var4(var5, var6, var7, var8)
L 5:  62 [-]: GETIMPORT R4 31; var4 = 0x89326C93
      63 [-]: GETIMPORT R6 1; var6 = 0x0469F296
      64 [-]: LOADK R7 K32 ; var7 = "NewWarIntroCin1"
      65 [-]: CALL R6 2 0  ; var6, ... = var6(var7)
      66 [-]: NAMECALL R4 R4 K33; var5 = var4; var4 = var4[0x46A0EBF5]
      67 [-]: CALL R4 0 2  ; var4 = var4(var5, ...)
      68 [-]: LOADK R6 K34 ; var6 = "StartPlaying"
      69 [-]: NAMECALL R4 R4 K35; var5 = var4; var4 = var4[0x8EB2112D]
      70 [-]: CALL R4 3 1  ; var4(var5, var6)
      71 [-]: JUMP L7      ; goto L7
L 6:  72 [-]: GETIMPORT R3 13; var3 = _T
      73 [-]: LOADB R4 1   ; var4 = true
      74 [-]: SETTABLEKS R4 R3 K36; var4["MinimalHud"] = var3
L 7:  75 [-]: GETIMPORT R5 38; var5 = 0xACAA689C
      76 [-]: NAMECALL R3 R2 K39; var4 = var2; var3 = var2[0x89F5ABE4]
      77 [-]: CALL R3 3 1  ; var3(var4, var5)
      78 [-]: GETIMPORT R3 11; var3 = 0x3492930F
      79 [-]: JUMPIF R3 L10; goto L10 if var3
      80 [-]: GETIMPORT R3 41; var3 = 0xC8802016
      81 [-]: GETIMPORT R4 43; var4 = 0xDC695B78
      82 [-]: CALL R3 2 4  ; var3, var4, var5 = var3(var4)
      83 [-]: FORGPREP_INEXT R3 L9; 
L 8:  84 [-]: MOVE R10 R7  ; var10 = var7
      85 [-]: GETIMPORT R11 45; var11 = EMPTY_SYMBOL
      86 [-]: NAMECALL R8 R2 K46; var9 = var2; var8 = var2[0x47901F07]
      87 [-]: CALL R8 4 1  ; var8(var9, var10, var11)
L 9:  88 [-]: FORGLOOP R3 L8 2 [inext]; 
L10:  89 [-]: GETIMPORT R3 31; var3 = 0x89326C93
      90 [-]: GETIMPORT R5 48; var5 = 0xD0ACC680
      91 [-]: NAMECALL R3 R3 K33; var4 = var3; var3 = var3[0x46A0EBF5]
      92 [-]: CALL R3 3 2  ; var3 = var3(var4, var5)
      93 [-]: GETIMPORT R6 50; var6 = gCameraSpotType
      94 [-]: NAMECALL R4 R3 K51; var5 = var3; var4 = var3[0xC9F6A7D7]
      95 [-]: CALL R4 3 2  ; var4 = var4(var5, var6)
      96 [-]: FASTCALL1 62 R3 L11; 
      97 [-]: MOVE R8 R3   ; var8 = var3
      98 [-]: GETIMPORT R7 17; var7 = 0x7B998233
      99 [-]: CALL R7 2 2  ; var7 = var7(var8)
L11: 100 [-]: NOT R6 R7    ; var6 = not var7
     101 [-]: FASTCALL1 1 R6 L12; 
     102 [-]: GETIMPORT R5 53; var5 = 0x60CCE7B4
     103 [-]: CALL R5 2 1  ; var5(var6)
L12: 104 [-]: GETUPVAL R5 1; var5 = upvalues[1]
     105 [-]: CALL R5 1 2  ; var5 = var5()
     106 [-]: NAMECALL R5 R5 K54; var6 = var5; var5 = var5[0x0B4BCFB6]
     107 [-]: CALL R5 2 2  ; var5 = var5(var6)
     108 [-]: NAMECALL R6 R5 K55; var7 = var5; var6 = var5[0xA72AFC7E]
     109 [-]: CALL R6 2 2  ; var6 = var6(var7)
     110 [-]: LOADN R9 0   ; var9 = 0
     111 [-]: NAMECALL R7 R5 K56; var8 = var5; var7 = var5[0x68F07B6A]
     112 [-]: CALL R7 3 1  ; var7(var8, var9)
     113 [-]: MOVE R9 R4   ; var9 = var4
     114 [-]: NAMECALL R7 R5 K57; var8 = var5; var7 = var5[0x14C7F7DD]
     115 [-]: CALL R7 3 1  ; var7(var8, var9)
     116 [-]: MOVE R9 R6   ; var9 = var6
     117 [-]: NAMECALL R7 R5 K56; var8 = var5; var7 = var5[0x68F07B6A]
     118 [-]: CALL R7 3 1  ; var7(var8, var9)
     119 [-]: LOADB R9 1   ; var9 = true
     120 [-]: NAMECALL R7 R2 K58; var8 = var2; var7 = var2[0xEC1EE87F]
     121 [-]: CALL R7 3 1  ; var7(var8, var9)
     122 [-]: NAMECALL R9 R3 K59; var10 = var3; var9 = var3[0xF6EBD926]
     123 [-]: CALL R9 2 2  ; var9 = var9(var10)
     124 [-]: NAMECALL R10 R3 K60; var11 = var3; var10 = var3[0x5280B883]
     125 [-]: CALL R10 2 0 ; var10, ... = var10(var11)
     126 [-]: NAMECALL R7 R2 K61; var8 = var2; var7 = var2[0x589EF1C1]
     127 [-]: CALL R7 0 1  ; var7(var8, ...)
     128 [-]: GETIMPORT R9 63; var9 = 0x2736FB17
     129 [-]: LOADB R10 0  ; var10 = false
     130 [-]: LOADN R11 3  ; var11 = 3
     131 [-]: LOADN R12 2  ; var12 = 2
     132 [-]: LOADB R13 1  ; var13 = true
     133 [-]: NAMECALL R7 R2 K64; var8 = var2; var7 = var2[0x5D985C7E]
     134 [-]: CALL R7 7 1  ; var7(var8, var9, var10, var11, var12, var13)
     135 [-]: GETIMPORT R7 31; var7 = 0x89326C93
     136 [-]: GETIMPORT R9 66; var9 = 0xC66DEF18
     137 [-]: NAMECALL R7 R7 K67; var8 = var7; var7 = var7[0xFB669000]
     138 [-]: CALL R7 3 2  ; var7 = var7(var8, var9)
     139 [-]: SETUPVAL R7 2; upvalues[7] = var2
     140 [-]: GETIMPORT R7 11; var7 = 0x3492930F
     141 [-]: JUMPIFNOT R7 L19; goto L19 if not var7
     142 [-]: GETIMPORT R7 1; var7 = 0x0469F296
     143 [-]: LOADK R8 K68 ; var8 = "NewWarIntroCin5"
     144 [-]: CALL R7 2 2  ; var7 = var7(var8)
     145 [-]: LOADNIL R8   ; var8 = nil
L13: 146 [-]: GETIMPORT R9 22; var9 = 0xCBD666E1
     147 [-]: LOADN R10 0  ; var10 = 0
     148 [-]: CALL R9 2 1  ; var9(var10)
     149 [-]: GETIMPORT R9 31; var9 = 0x89326C93
     150 [-]: NAMECALL R9 R9 K69; var10 = var9; var9 = var9[0xDD25E9D1]
     151 [-]: CALL R9 2 2  ; var9 = var9(var10)
     152 [-]: MOVE R8 R9   ; var8 = var9
     153 [-]: FASTCALL1 62 R8 L14; 
     154 [-]: MOVE R10 R8  ; var10 = var8
     155 [-]: GETIMPORT R9 17; var9 = 0x7B998233
     156 [-]: CALL R9 2 2  ; var9 = var9(var10)
L14: 157 [-]: JUMPIF R9 L15; goto L15 if var9
     158 [-]: MOVE R11 R7  ; var11 = var7
     159 [-]: NAMECALL R9 R8 K70; var10 = var8; var9 = var8[0x08DB51DE]
     160 [-]: CALL R9 3 2  ; var9 = var9(var10, var11)
     161 [-]: JUMPIF R9 L16; goto L16 if var9
L15: 162 [-]: JUMPBACK L13 ; goto L13
L16: 163 [-]: GETIMPORT R10 31; var10 = 0x89326C93
     164 [-]: NAMECALL R10 R10 K69; var11 = var10; var10 = var10[0xDD25E9D1]
     165 [-]: CALL R10 2 2 ; var10 = var10(var11)
     166 [-]: FASTCALL1 62 R10 L17; 
     167 [-]: GETIMPORT R9 17; var9 = 0x7B998233
     168 [-]: CALL R9 2 2  ; var9 = var9(var10)
L17: 169 [-]: JUMPIF R9 L18; goto L18 if var9
     170 [-]: GETIMPORT R9 22; var9 = 0xCBD666E1
     171 [-]: LOADN R10 0  ; var10 = 0
     172 [-]: CALL R9 2 1  ; var9(var10)
     173 [-]: JUMPBACK L16 ; goto L16
L18: 174 [-]: GETIMPORT R9 31; var9 = 0x89326C93
     175 [-]: NAMECALL R9 R9 K71; var10 = var9; var9 = var9[0x7C1A0374]
     176 [-]: CALL R9 2 2  ; var9 = var9(var10)
     177 [-]: LOADN R11 0  ; var11 = 0
     178 [-]: NAMECALL R9 R9 K72; var10 = var9; var9 = var9[0xB6DF3E50]
     179 [-]: CALL R9 3 1  ; var9(var10, var11)
     180 [-]: GETIMPORT R9 22; var9 = 0xCBD666E1
     181 [-]: LOADN R10 0  ; var10 = 0
     182 [-]: CALL R9 2 1  ; var9(var10)
     183 [-]: GETIMPORT R9 13; var9 = _T
     184 [-]: LOADB R10 1  ; var10 = true
     185 [-]: SETTABLEKS R10 R9 K36; var10["MinimalHud"] = var9
L19: 186 [-]: GETUPVAL R7 3; var7 = upvalues[3]
     187 [-]: MOVE R8 R3   ; var8 = var3
     188 [-]: LOADB R9 1   ; var9 = true
     189 [-]: CALL R7 3 1  ; var7(var8, var9)
     190 [-]: GETIMPORT R7 13; var7 = _T
     191 [-]: NEWCLOSURE R8 P0; 
     192 [-]: CAPTURE UPVAL U4; 
     193 [-]: CAPTURE UPVAL U5; 
     194 [-]: CAPTURE UPVAL U6; 
     195 [-]: CAPTURE UPVAL U7; 
     196 [-]: CAPTURE UPVAL U8; 
     197 [-]: SETTABLEKS R8 R7 K73; var8["Chimera_SetConnectedPointsOverride"] = var7
     198 [-]: GETIMPORT R7 31; var7 = 0x89326C93
     199 [-]: NAMECALL R7 R7 K74; var8 = var7; var7 = var7[0xFB64E76C]
     200 [-]: CALL R7 2 2  ; var7 = var7(var8)
     201 [-]: MOVE R10 R0  ; var10 = var0
     202 [-]: MOVE R11 R1  ; var11 = var1
     203 [-]: LOADK R12 K75; var12 = "InputHandler_PRE_ATTACK"
     204 [-]: NAMECALL R8 R7 K76; var9 = var7; var8 = var7[0x1064A8AC]
     205 [-]: CALL R8 5 1  ; var8(var9, var10, var11, var12)
     206 [-]: GETIMPORT R8 13; var8 = _T
     207 [-]: DUPCLOSURE R9 K77; 
     208 [-]: CAPTURE UPVAL U3; 
     209 [-]: SETTABLEKS R9 R8 K78; var9["Chimera_WarpToPoint"] = var8
     210 [-]: LOADNIL R8   ; var8 = nil
     211 [-]: GETIMPORT R9 13; var9 = _T
     212 [-]: DUPTABLE R10 81; 
     213 [-]: LOADN R11 5  ; var11 = 5
     214 [-]: SETTABLEKS R11 R10 K79; var11["NumSegments"] = var10
     215 [-]: GETUPVAL R11 9; var11 = upvalues[9]
     216 [-]: SETTABLEKS R11 R10 K80; var11["Health"] = var10
     217 [-]: SETTABLEKS R10 R9 K82; var10["DetectionHud_Info"] = var9
     218 [-]: GETIMPORT R10 84; var10 = 0x440081A2
     219 [-]: FASTCALL1 62 R10 L20; 
     220 [-]: GETIMPORT R9 17; var9 = 0x7B998233
     221 [-]: CALL R9 2 2  ; var9 = var9(var10)
L20: 222 [-]: JUMPIF R9 L21; goto L21 if var9
     223 [-]: GETIMPORT R9 4; var9 = 0x9BA7909F
     224 [-]: GETIMPORT R11 84; var11 = 0x440081A2
     225 [-]: NAMECALL R9 R9 K85; var10 = var9; var9 = var9[0xCFBA257F]
     226 [-]: CALL R9 3 2  ; var9 = var9(var10, var11)
     227 [-]: MOVE R8 R9   ; var8 = var9
L21: 228 [-]: GETIMPORT R9 87; var9 = _T["Chimera_ShouldEndSequence"]
     229 [-]: JUMPIF R9 L25; goto L25 if var9
     230 [-]: GETIMPORT R9 22; var9 = 0xCBD666E1
     231 [-]: LOADN R10 0  ; var10 = 0
     232 [-]: CALL R9 2 1  ; var9(var10)
     233 [-]: GETUPVAL R9 10; var9 = upvalues[10]
     234 [-]: CALL R9 1 1  ; var9()
     235 [-]: GETUPVAL R9 11; var9 = upvalues[11]
     236 [-]: GETIMPORT R10 89; var10 = _T["Chimera_Detected"]
     237 [-]: CALL R9 2 2  ; var9 = var9(var10)
     238 [-]: JUMPIF R9 L22; goto L22 if var9
     239 [-]: GETIMPORT R9 13; var9 = _T
     240 [-]: LOADB R10 1  ; var10 = true
     241 [-]: SETTABLEKS R10 R9 K90; var10["Chimera_Restart"] = var9
     242 [-]: GETIMPORT R9 13; var9 = _T
     243 [-]: GETIMPORT R12 94; var12 = _T["Chimera_FailureCount"]
     244 [-]: ORK R11 R12 K92; var11 = var12 or 0
     245 [-]: ADDK R10 R11 K91; var10 = var11 + 1
     246 [-]: SETTABLEKS R10 R9 K93; var10["Chimera_FailureCount"] = var9
     247 [-]: GETUPVAL R9 12; var9 = upvalues[12]
     248 [-]: CALL R9 1 1  ; var9()
     249 [-]: GETIMPORT R9 13; var9 = _T
     250 [-]: LOADB R10 1  ; var10 = true
     251 [-]: SETTABLEKS R10 R9 K95; var10["Chimera_DisableDetection"] = var9
     252 [-]: GETIMPORT R9 13; var9 = _T
     253 [-]: LOADB R10 0  ; var10 = false
     254 [-]: SETTABLEKS R10 R9 K88; var10["Chimera_Detected"] = var9
     255 [-]: GETIMPORT R9 13; var9 = _T
     256 [-]: LOADN R10 0  ; var10 = 0
     257 [-]: SETTABLEKS R10 R9 K96; var10["Chimera_DetectionAmount"] = var9
     258 [-]: LOADN R9 5   ; var9 = 5
     259 [-]: SETUPVAL R9 9; upvalues[9] = var9
     260 [-]: GETIMPORT R9 13; var9 = _T
     261 [-]: LOADNIL R10  ; var10 = nil
     262 [-]: SETTABLEKS R10 R9 K97; var10["Chimera_SwordProgress"] = var9
     263 [-]: GETIMPORT R9 13; var9 = _T
     264 [-]: LOADNIL R10  ; var10 = nil
     265 [-]: SETTABLEKS R10 R9 K98; var10["Chimera_BallasWaitingForSearchPoint"] = var9
     266 [-]: GETUPVAL R9 3; var9 = upvalues[3]
     267 [-]: GETIMPORT R10 31; var10 = 0x89326C93
     268 [-]: GETIMPORT R12 1; var12 = 0x0469F296
     269 [-]: LOADK R13 K99; var13 = "ChimeraPreIntroPoint3"
     270 [-]: CALL R12 2 0 ; var12, ... = var12(var13)
     271 [-]: NAMECALL R10 R10 K33; var11 = var10; var10 = var10[0x46A0EBF5]
     272 [-]: CALL R10 0 2 ; var10 = var10(var11, ...)
     273 [-]: LOADB R11 1  ; var11 = true
     274 [-]: CALL R9 3 1  ; var9(var10, var11)
     275 [-]: GETIMPORT R9 22; var9 = 0xCBD666E1
     276 [-]: LOADK R10 K100; var10 = 0.29999999999999999
     277 [-]: CALL R9 2 1  ; var9(var10)
     278 [-]: GETIMPORT R9 13; var9 = _T
     279 [-]: LOADB R10 0  ; var10 = false
     280 [-]: SETTABLEKS R10 R9 K90; var10["Chimera_Restart"] = var9
     281 [-]: GETUPVAL R9 13; var9 = upvalues[13]
     282 [-]: CALL R9 1 1  ; var9()
L22: 283 [-]: GETUPVAL R9 14; var9 = upvalues[14]
     284 [-]: JUMPIFNOT R9 L24; goto L24 if not var9
     285 [-]: GETUPVAL R10 15; var10 = upvalues[15]
     286 [-]: FASTCALL1 62 R10 L23; 
     287 [-]: GETIMPORT R9 17; var9 = 0x7B998233
     288 [-]: CALL R9 2 2  ; var9 = var9(var10)
L23: 289 [-]: JUMPIF R9 L24; goto L24 if var9
     290 [-]: GETUPVAL R9 3; var9 = upvalues[3]
     291 [-]: GETUPVAL R10 15; var10 = upvalues[15]
     292 [-]: LOADB R11 0  ; var11 = false
     293 [-]: CALL R9 3 1  ; var9(var10, var11)
L24: 294 [-]: JUMPBACK L21 ; goto L21
L25: 295 [-]: FASTCALL1 62 R8 L26; 
     296 [-]: MOVE R10 R8  ; var10 = var8
     297 [-]: GETIMPORT R9 17; var9 = 0x7B998233
     298 [-]: CALL R9 2 2  ; var9 = var9(var10)
L26: 299 [-]: JUMPIF R9 L27; goto L27 if var9
     300 [-]: NAMECALL R9 R8 K101; var10 = var8; var9 = var8[0x32302B4A]
     301 [-]: CALL R9 2 1  ; var9(var10)
L27: 302 [-]: GETIMPORT R9 31; var9 = 0x89326C93
     303 [-]: NAMECALL R9 R9 K74; var10 = var9; var9 = var9[0xFB64E76C]
     304 [-]: CALL R9 2 2  ; var9 = var9(var10)
     305 [-]: MOVE R7 R9   ; var7 = var9
     306 [-]: MOVE R11 R0  ; var11 = var0
     307 [-]: MOVE R12 R1  ; var12 = var1
     308 [-]: NAMECALL R9 R7 K102; var10 = var7; var9 = var7[0x1A415347]
     309 [-]: CALL R9 4 1  ; var9(var10, var11, var12)
     310 [-]: GETUPVAL R9 3; var9 = upvalues[3]
     311 [-]: LOADNIL R10  ; var10 = nil
     312 [-]: CALL R9 2 1  ; var9(var10)
     313 [-]: GETIMPORT R9 13; var9 = _T
     314 [-]: LOADNIL R10  ; var10 = nil
     315 [-]: SETTABLEKS R10 R9 K36; var10["MinimalHud"] = var9
     316 [-]: RETURN R0 0  ; 


; Name:            
; Defined at line: 564
; #Upvalues:       1
; #Parameters:     1
; Is_vararg:       0
; Max Stack Size:  3

       0 [-]: LOADN R2 0   ; var2 = 0
       1 [-]: JUMPIFLT R2 R0 L0; goto L0 if var2 < var16777499
       2 [-]: LOADB R1 0 +1; var1 = false
L 0:   3 [-]: LOADB R1 1   ; var1 = true
L 1:   4 [-]: SETUPVAL R1 0; upvalues[1] = var0
       5 [-]: RETURN R0 0  ; 


; Name:            
; Defined at line: 568
; #Upvalues:       4
; #Parameters:     0
; Is_vararg:       0
; Max Stack Size:  20

       0 [-]: GETIMPORT R0 1; var0 = 0x89326C93
       1 [-]: GETIMPORT R2 3; var2 = 0x0469F296
       2 [-]: LOADK R3 K4  ; var3 = "ChimeraSword"
       3 [-]: CALL R2 2 0  ; var2, ... = var2(var3)
       4 [-]: NAMECALL R0 R0 K5; var1 = var0; var0 = var0[0x46A0EBF5]
       5 [-]: CALL R0 0 2  ; var0 = var0(var1, ...)
       6 [-]: FASTCALL1 62 R0 L0; 
       7 [-]: MOVE R2 R0   ; var2 = var0
       8 [-]: GETIMPORT R1 7; var1 = 0x7B998233
       9 [-]: CALL R1 2 2  ; var1 = var1(var2)
L 0:  10 [-]: JUMPIF R1 L1 ; goto L1 if var1
      11 [-]: GETIMPORT R3 3; var3 = 0x0469F296
      12 [-]: LOADK R4 K8  ; var4 = "BallasSword"
      13 [-]: CALL R3 2 0  ; var3, ... = var3(var4)
      14 [-]: NAMECALL R1 R0 K9; var2 = var0; var1 = var0[0x26D544FC]
      15 [-]: CALL R1 0 1  ; var1(var2, ...)
L 1:  16 [-]: GETIMPORT R1 11; var1 = 0xBE190284
      17 [-]: NAMECALL R1 R1 K12; var2 = var1; var1 = var1[0xABF50B1C]
      18 [-]: CALL R1 2 2  ; var1 = var1(var2)
      19 [-]: LOADB R3 0   ; var3 = false
      20 [-]: NAMECALL R1 R1 K13; var2 = var1; var1 = var1[0x543A0B5E]
      21 [-]: CALL R1 3 1  ; var1(var2, var3)
      22 [-]: GETIMPORT R1 11; var1 = 0xBE190284
      23 [-]: NAMECALL R1 R1 K12; var2 = var1; var1 = var1[0xABF50B1C]
      24 [-]: CALL R1 2 2  ; var1 = var1(var2)
      25 [-]: GETIMPORT R3 3; var3 = 0x0469F296
      26 [-]: LOADK R4 K14 ; var4 = "ChimeraQuestIntro"
      27 [-]: CALL R3 2 0  ; var3, ... = var3(var4)
      28 [-]: NAMECALL R1 R1 K15; var2 = var1; var1 = var1[0xFF185F7E]
      29 [-]: CALL R1 0 1  ; var1(var2, ...)
      30 [-]: GETIMPORT R1 17; var1 = _T
      31 [-]: LOADB R2 1   ; var2 = true
      32 [-]: SETTABLEKS R2 R1 K18; var2["Chimera_DisableDetection"] = var1
      33 [-]: GETIMPORT R1 1; var1 = 0x89326C93
      34 [-]: GETIMPORT R3 3; var3 = 0x0469F296
      35 [-]: LOADK R4 K19 ; var4 = "ChimeraThroneTeleportDest"
      36 [-]: CALL R3 2 0  ; var3, ... = var3(var4)
      37 [-]: NAMECALL R1 R1 K5; var2 = var1; var1 = var1[0x46A0EBF5]
      38 [-]: CALL R1 0 2  ; var1 = var1(var2, ...)
      39 [-]: GETIMPORT R2 1; var2 = 0x89326C93
      40 [-]: GETIMPORT R4 3; var4 = 0x0469F296
      41 [-]: LOADK R5 K20 ; var5 = "ChimeraPreIntroPoint1"
      42 [-]: CALL R4 2 0  ; var4, ... = var4(var5)
      43 [-]: NAMECALL R2 R2 K5; var3 = var2; var2 = var2[0x46A0EBF5]
      44 [-]: CALL R2 0 2  ; var2 = var2(var3, ...)
      45 [-]: GETIMPORT R3 1; var3 = 0x89326C93
      46 [-]: GETIMPORT R5 3; var5 = 0x0469F296
      47 [-]: LOADK R6 K21 ; var6 = "ChimeraPreIntroPoint2"
      48 [-]: CALL R5 2 0  ; var5, ... = var5(var6)
      49 [-]: NAMECALL R3 R3 K5; var4 = var3; var3 = var3[0x46A0EBF5]
      50 [-]: CALL R3 0 2  ; var3 = var3(var4, ...)
      51 [-]: GETIMPORT R4 1; var4 = 0x89326C93
      52 [-]: GETIMPORT R6 3; var6 = 0x0469F296
      53 [-]: LOADK R7 K22 ; var7 = "ChimeraPreIntroPoint3"
      54 [-]: CALL R6 2 0  ; var6, ... = var6(var7)
      55 [-]: NAMECALL R4 R4 K5; var5 = var4; var4 = var4[0x46A0EBF5]
      56 [-]: CALL R4 0 2  ; var4 = var4(var5, ...)
L 2:  57 [-]: GETIMPORT R5 24; var5 = _T["Chimera_CurrentPoint"]
      58 [-]: JUMPIFEQ R5 R1 L3; goto L3 if var5 == var1705294
      59 [-]: GETIMPORT R5 26; var5 = 0xCBD666E1
      60 [-]: LOADN R6 0   ; var6 = 0
      61 [-]: CALL R5 2 1  ; var5(var6)
      62 [-]: JUMPBACK L2  ; goto L2
L 3:  63 [-]: LOADK R7 K27 ; var7 = "Disable"
      64 [-]: NAMECALL R5 R1 K28; var6 = var1; var5 = var1[0x8EB2112D]
      65 [-]: CALL R5 3 1  ; var5(var6, var7)
      66 [-]: GETIMPORT R5 30; var5 = _T["Chimera_SetConnectedPointsOverride"]
      67 [-]: NEWTABLE R6 0 1; var6 = {}
      68 [-]: MOVE R7 R2   ; var7 = var2
      69 [-]: SETLIST R6 R7 1 [1]; var6[1] = var7; var6[2] = var8; 
      70 [-]: CALL R5 2 1  ; var5(var6)
      71 [-]: GETUPVAL R6 0; var6 = upvalues[0]
      72 [-]: GETTABLEKS R5 R6 K31; var5 = var6[0x9742B85B]
      73 [-]: GETIMPORT R6 33; var6 = 0xE91D7466
      74 [-]: GETIMPORT R7 3; var7 = 0x0469F296
      75 [-]: LOADK R8 K34 ; var8 = "BallasPreIntro1"
      76 [-]: CALL R7 2 0  ; var7, ... = var7(var8)
      77 [-]: CALL R5 0 1  ; var5(var6, ...)
      78 [-]: GETIMPORT R5 1; var5 = 0x89326C93
      79 [-]: GETIMPORT R7 3; var7 = 0x0469F296
      80 [-]: LOADK R8 K35 ; var8 = "BallasPreIntroPoint"
      81 [-]: CALL R7 2 0  ; var7, ... = var7(var8)
      82 [-]: NAMECALL R5 R5 K5; var6 = var5; var5 = var5[0x46A0EBF5]
      83 [-]: CALL R5 0 2  ; var5 = var5(var6, ...)
      84 [-]: GETIMPORT R6 1; var6 = 0x89326C93
      85 [-]: GETIMPORT R8 3; var8 = 0x0469F296
      86 [-]: LOADK R9 K36 ; var9 = "Ballas"
      87 [-]: CALL R8 2 0  ; var8, ... = var8(var9)
      88 [-]: NAMECALL R6 R6 K5; var7 = var6; var6 = var6[0x46A0EBF5]
      89 [-]: CALL R6 0 2  ; var6 = var6(var7, ...)
      90 [-]: NAMECALL R9 R5 K37; var10 = var5; var9 = var5[0xF6EBD926]
      91 [-]: CALL R9 2 2  ; var9 = var9(var10)
      92 [-]: NAMECALL R10 R5 K38; var11 = var5; var10 = var5[0x5280B883]
      93 [-]: CALL R10 2 0 ; var10, ... = var10(var11)
      94 [-]: NAMECALL R7 R6 K39; var8 = var6; var7 = var6[0x589EF1C1]
      95 [-]: CALL R7 0 1  ; var7(var8, ...)
      96 [-]: NAMECALL R7 R6 K40; var8 = var6; var7 = var6[0x020D4331]
      97 [-]: CALL R7 2 2  ; var7 = var7(var8)
      98 [-]: NAMECALL R9 R5 K38; var10 = var5; var9 = var5[0x5280B883]
      99 [-]: CALL R9 2 0  ; var9, ... = var9(var10)
     100 [-]: NAMECALL R7 R7 K41; var8 = var7; var7 = var7[0x553549E8]
     101 [-]: CALL R7 0 1  ; var7(var8, ...)
L 4: 102 [-]: GETIMPORT R7 24; var7 = _T["Chimera_CurrentPoint"]
     103 [-]: JUMPIFEQ R7 R2 L5; goto L5 if var7 == var1705806
     104 [-]: GETIMPORT R7 26; var7 = 0xCBD666E1
     105 [-]: LOADN R8 0   ; var8 = 0
     106 [-]: CALL R7 2 1  ; var7(var8)
     107 [-]: JUMPBACK L4  ; goto L4
L 5: 108 [-]: LOADK R9 K27 ; var9 = "Disable"
     109 [-]: NAMECALL R7 R2 K28; var8 = var2; var7 = var2[0x8EB2112D]
     110 [-]: CALL R7 3 1  ; var7(var8, var9)
     111 [-]: GETIMPORT R7 30; var7 = _T["Chimera_SetConnectedPointsOverride"]
     112 [-]: NEWTABLE R8 0 1; var8 = {}
     113 [-]: MOVE R9 R3   ; var9 = var3
     114 [-]: SETLIST R8 R9 1 [1]; var8[1] = var9; var8[2] = var10; 
     115 [-]: CALL R7 2 1  ; var7(var8)
L 6: 116 [-]: GETIMPORT R7 24; var7 = _T["Chimera_CurrentPoint"]
     117 [-]: JUMPIFEQ R7 R3 L7; goto L7 if var7 == var1705806
     118 [-]: GETIMPORT R7 26; var7 = 0xCBD666E1
     119 [-]: LOADN R8 0   ; var8 = 0
     120 [-]: CALL R7 2 1  ; var7(var8)
     121 [-]: JUMPBACK L6  ; goto L6
L 7: 122 [-]: LOADK R9 K27 ; var9 = "Disable"
     123 [-]: NAMECALL R7 R3 K28; var8 = var3; var7 = var3[0x8EB2112D]
     124 [-]: CALL R7 3 1  ; var7(var8, var9)
     125 [-]: GETIMPORT R7 30; var7 = _T["Chimera_SetConnectedPointsOverride"]
     126 [-]: NEWTABLE R8 0 1; var8 = {}
     127 [-]: MOVE R9 R4   ; var9 = var4
     128 [-]: SETLIST R8 R9 1 [1]; var8[1] = var9; var8[2] = var10; 
     129 [-]: CALL R7 2 1  ; var7(var8)
     130 [-]: GETUPVAL R8 0; var8 = upvalues[0]
     131 [-]: GETTABLEKS R7 R8 K31; var7 = var8[0x9742B85B]
     132 [-]: GETIMPORT R8 33; var8 = 0xE91D7466
     133 [-]: GETIMPORT R9 3; var9 = 0x0469F296
     134 [-]: LOADK R10 K42; var10 = "BallasPreIntro2"
     135 [-]: CALL R9 2 0  ; var9, ... = var9(var10)
     136 [-]: CALL R7 0 1  ; var7(var8, ...)
L 8: 137 [-]: GETIMPORT R7 24; var7 = _T["Chimera_CurrentPoint"]
     138 [-]: JUMPIFEQ R7 R4 L9; goto L9 if var7 == var1705806
     139 [-]: GETIMPORT R7 26; var7 = 0xCBD666E1
     140 [-]: LOADN R8 0   ; var8 = 0
     141 [-]: CALL R7 2 1  ; var7(var8)
     142 [-]: JUMPBACK L8  ; goto L8
L 9: 143 [-]: LOADK R9 K27 ; var9 = "Disable"
     144 [-]: NAMECALL R7 R4 K28; var8 = var4; var7 = var4[0x8EB2112D]
     145 [-]: CALL R7 3 1  ; var7(var8, var9)
     146 [-]: GETIMPORT R7 30; var7 = _T["Chimera_SetConnectedPointsOverride"]
     147 [-]: NEWTABLE R8 0 0; var8 = {}
     148 [-]: CALL R7 2 1  ; var7(var8)
     149 [-]: GETUPVAL R8 0; var8 = upvalues[0]
     150 [-]: GETTABLEKS R7 R8 K43; var7 = var8[0xFC87A231]
     151 [-]: LOADN R8 1   ; var8 = 1
     152 [-]: LOADB R9 1   ; var9 = true
     153 [-]: CALL R7 3 1  ; var7(var8, var9)
     154 [-]: GETIMPORT R7 1; var7 = 0x89326C93
     155 [-]: GETIMPORT R9 3; var9 = 0x0469F296
     156 [-]: LOADK R10 K44; var10 = "ChimeraIntroPoint"
     157 [-]: CALL R9 2 0  ; var9, ... = var9(var10)
     158 [-]: NAMECALL R7 R7 K5; var8 = var7; var7 = var7[0x46A0EBF5]
     159 [-]: CALL R7 0 2  ; var7 = var7(var8, ...)
     160 [-]: GETIMPORT R8 30; var8 = _T["Chimera_SetConnectedPointsOverride"]
     161 [-]: NEWTABLE R9 0 1; var9 = {}
     162 [-]: MOVE R10 R7  ; var10 = var7
     163 [-]: SETLIST R9 R10 1 [1]; var9[1] = var10; var9[2] = var11; 
     164 [-]: CALL R8 2 1  ; var8(var9)
L10: 165 [-]: GETIMPORT R8 24; var8 = _T["Chimera_CurrentPoint"]
     166 [-]: JUMPIFEQ R8 R7 L11; goto L11 if var8 == var1706062
     167 [-]: GETIMPORT R8 26; var8 = 0xCBD666E1
     168 [-]: LOADN R9 0   ; var9 = 0
     169 [-]: CALL R8 2 1  ; var8(var9)
     170 [-]: JUMPBACK L10 ; goto L10
L11: 171 [-]: GETIMPORT R8 30; var8 = _T["Chimera_SetConnectedPointsOverride"]
     172 [-]: NEWTABLE R9 0 0; var9 = {}
     173 [-]: CALL R8 2 1  ; var8(var9)
     174 [-]: GETIMPORT R8 1; var8 = 0x89326C93
     175 [-]: GETIMPORT R10 3; var10 = 0x0469F296
     176 [-]: LOADK R11 K45; var11 = "ChimeraBallasIntroCin"
     177 [-]: CALL R10 2 0 ; var10, ... = var10(var11)
     178 [-]: NAMECALL R8 R8 K5; var9 = var8; var8 = var8[0x46A0EBF5]
     179 [-]: CALL R8 0 2  ; var8 = var8(var9, ...)
     180 [-]: GETIMPORT R9 11; var9 = 0xBE190284
     181 [-]: NAMECALL R9 R9 K12; var10 = var9; var9 = var9[0xABF50B1C]
     182 [-]: CALL R9 2 2  ; var9 = var9(var10)
     183 [-]: GETIMPORT R11 3; var11 = 0x0469F296
     184 [-]: LOADK R12 K46; var12 = "ChimeraQuest"
     185 [-]: CALL R11 2 0 ; var11, ... = var11(var12)
     186 [-]: NAMECALL R9 R9 K15; var10 = var9; var9 = var9[0xFF185F7E]
     187 [-]: CALL R9 0 1  ; var9(var10, ...)
     188 [-]: LOADK R11 K47; var11 = "StartPlaying"
     189 [-]: NAMECALL R9 R8 K28; var10 = var8; var9 = var8[0x8EB2112D]
     190 [-]: CALL R9 3 1  ; var9(var10, var11)
L12: 191 [-]: NAMECALL R9 R8 K48; var10 = var8; var9 = var8[0x1C84839C]
     192 [-]: CALL R9 2 2  ; var9 = var9(var10)
     193 [-]: JUMPIF R9 L13; goto L13 if var9
     194 [-]: GETIMPORT R9 26; var9 = 0xCBD666E1
     195 [-]: LOADN R10 0  ; var10 = 0
     196 [-]: CALL R9 2 1  ; var9(var10)
     197 [-]: JUMPBACK L12 ; goto L12
L13: 198 [-]: NAMECALL R9 R8 K48; var10 = var8; var9 = var8[0x1C84839C]
     199 [-]: CALL R9 2 2  ; var9 = var9(var10)
     200 [-]: JUMPIFNOT R9 L14; goto L14 if not var9
     201 [-]: GETIMPORT R9 26; var9 = 0xCBD666E1
     202 [-]: LOADN R10 0  ; var10 = 0
     203 [-]: CALL R9 2 1  ; var9(var10)
     204 [-]: JUMPBACK L13 ; goto L13
L14: 205 [-]: GETIMPORT R9 17; var9 = _T
     206 [-]: DUPTABLE R10 51; 
     207 [-]: NAMECALL R11 R6 K37; var12 = var6; var11 = var6[0xF6EBD926]
     208 [-]: CALL R11 2 2 ; var11 = var11(var12)
     209 [-]: SETTABLEKS R11 R10 K49; var11["pos"] = var10
     210 [-]: GETIMPORT R11 53; var11 = 0x20E8CA12
     211 [-]: NAMECALL R12 R6 K38; var13 = var6; var12 = var6[0x5280B883]
     212 [-]: CALL R12 2 2 ; var12 = var12(var13)
     213 [-]: GETIMPORT R13 55; var13 = 0x00046924
     214 [-]: LOADN R14 180; var14 = 180
     215 [-]: LOADN R15 0  ; var15 = 0
     216 [-]: LOADN R16 0  ; var16 = 0
     217 [-]: CALL R13 4 0 ; var13, ... = var13(var14, var15, var16)
     218 [-]: CALL R11 0 2 ; var11 = var11(var12, ...)
     219 [-]: SETTABLEKS R11 R10 K50; var11["rot"] = var10
     220 [-]: SETTABLEKS R10 R9 K56; var10["Chimera_BallasReset"] = var9
     221 [-]: GETIMPORT R9 30; var9 = _T["Chimera_SetConnectedPointsOverride"]
     222 [-]: CALL R9 1 1  ; var9()
     223 [-]: LOADN R9 0   ; var9 = 0
     224 [-]: NEWCLOSURE R10 P0; 
     225 [-]: CAPTURE UPVAL U0; 
     226 [-]: CAPTURE UPVAL U1; 
     227 [-]: CAPTURE REF R9; 
L15: 228 [-]: LOADN R11 0  ; var11 = 0
     229 [-]: SETUPVAL R11 2; upvalues[11] = var2
     230 [-]: GETIMPORT R11 17; var11 = _T
     231 [-]: LOADNIL R12  ; var12 = nil
     232 [-]: SETTABLEKS R12 R11 K18; var12["Chimera_DisableDetection"] = var11
     233 [-]: LOADN R13 1  ; var13 = 1
     234 [-]: LOADN R11 6  ; var11 = 6
     235 [-]: LOADN R12 1  ; var12 = 1
     236 [-]: FORNPREP R11 L22; nforprep start - [escape at L22] -- var11 = iterator
L16: 237 [-]: MOVE R14 R10 ; var14 = var10
     238 [-]: GETIMPORT R15 3; var15 = 0x0469F296
     239 [-]: LOADK R17 K57; var17 = "BallasRant"
     240 [-]: GETIMPORT R18 59; var18 = 0x64FB1586
     241 [-]: MOVE R19 R13 ; var19 = var13
     242 [-]: CALL R18 2 2 ; var18 = var18(var19)
     243 [-]: CONCAT R16 R17 R18; var16 = var17 .. var18
     244 [-]: CALL R15 2 0 ; var15, ... = var15(var16)
     245 [-]: CALL R14 0 2 ; var14 = var14(var15, ...)
     246 [-]: JUMPIF R14 L17; goto L17 if var14
     247 [-]: LOADN R14 6  ; var14 = 6
     248 [-]: JUMPIFLT R13 R14 L22; goto L22 if var13 < var331335
L17: 249 [-]: LOADN R14 5  ; var14 = 5
     250 [-]: JUMPIFNOTLE R14 R13 L18; goto L18 if var14 > var1117774
     251 [-]: GETIMPORT R14 17; var14 = _T
     252 [-]: LOADB R15 1  ; var15 = true
     253 [-]: SETTABLEKS R15 R14 K18; var15["Chimera_DisableDetection"] = var14
     254 [-]: GETIMPORT R14 17; var14 = _T
     255 [-]: LOADB R15 1  ; var15 = true
     256 [-]: SETTABLEKS R15 R14 K60; var15["Chimera_BallasDisableEyeSounds"] = var14
L18: 257 [-]: SETUPVAL R13 2; upvalues[13] = var2
     258 [-]: LOADB R14 0  ; var14 = false
     259 [-]: SETUPVAL R14 3; upvalues[14] = var3
     260 [-]: GETIMPORT R16 3; var16 = 0x0469F296
     261 [-]: LOADK R17 K61; var17 = "BallasSummonSword"
     262 [-]: CALL R16 2 2 ; var16 = var16(var17)
     263 [-]: LOADB R17 0  ; var17 = false
     264 [-]: NAMECALL R14 R6 K62; var15 = var6; var14 = var6[0xD5F7912B]
     265 [-]: CALL R14 4 1 ; var14(var15, var16, var17)
L19: 266 [-]: GETUPVAL R14 3; var14 = upvalues[3]
     267 [-]: JUMPIF R14 L21; goto L21 if var14
     268 [-]: GETIMPORT R14 26; var14 = 0xCBD666E1
     269 [-]: LOADN R15 0  ; var15 = 0
     270 [-]: CALL R14 2 1 ; var14(var15)
     271 [-]: GETIMPORT R14 64; var14 = _T["Chimera_Restart"]
     272 [-]: JUMPIFNOT R14 L20; goto L20 if not var14
     273 [-]: LOADN R14 5  ; var14 = 5
     274 [-]: JUMPIFLT R13 R14 L21; goto L21 if var13 < var-851924
L20: 275 [-]: JUMPBACK L19 ; goto L19
L21: 276 [-]: FORNLOOP R11 L16; nforloop end - iterate + goto L16
L22: 277 [-]: GETUPVAL R11 2; var11 = upvalues[2]
     278 [-]: LOADN R12 6  ; var12 = 6
     279 [-]: JUMPIFLE R12 R11 L33; goto L33 if var12 <= var4197198
L23: 280 [-]: GETIMPORT R11 64; var11 = _T["Chimera_Restart"]
     281 [-]: JUMPIFNOT R11 L26; goto L26 if not var11
     282 [-]: GETIMPORT R12 66; var12 = _T["curTransmission"]
     283 [-]: FASTCALL1 62 R12 L24; 
     284 [-]: GETIMPORT R11 7; var11 = 0x7B998233
     285 [-]: CALL R11 2 2 ; var11 = var11(var12)
L24: 286 [-]: JUMPIF R11 L25; goto L25 if var11
     287 [-]: GETUPVAL R12 1; var12 = upvalues[1]
     288 [-]: GETTABLEKS R11 R12 K67; var11 = var12[0xFE0D9469]
     289 [-]: GETIMPORT R12 66; var12 = _T["curTransmission"]
     290 [-]: CALL R11 2 1 ; var11(var12)
L25: 291 [-]: GETUPVAL R12 1; var12 = upvalues[1]
     292 [-]: GETTABLEKS R11 R12 K68; var11 = var12[0xA559EB32]
     293 [-]: CALL R11 1 1 ; var11()
     294 [-]: GETIMPORT R11 26; var11 = 0xCBD666E1
     295 [-]: LOADN R12 0  ; var12 = 0
     296 [-]: CALL R11 2 1 ; var11(var12)
     297 [-]: JUMPBACK L23 ; goto L23
L26: 298 [-]: GETIMPORT R13 69; var13 = _T["Chimera_BallasReset"]["pos"]
     299 [-]: GETIMPORT R14 70; var14 = _T["Chimera_BallasReset"]["rot"]
     300 [-]: NAMECALL R11 R6 K39; var12 = var6; var11 = var6[0x589EF1C1]
     301 [-]: CALL R11 4 1 ; var11(var12, var13, var14)
     302 [-]: NAMECALL R11 R6 K40; var12 = var6; var11 = var6[0x020D4331]
     303 [-]: CALL R11 2 2 ; var11 = var11(var12)
     304 [-]: GETIMPORT R13 70; var13 = _T["Chimera_BallasReset"]["rot"]
     305 [-]: NAMECALL R11 R11 K41; var12 = var11; var11 = var11[0x553549E8]
     306 [-]: CALL R11 3 1 ; var11(var12, var13)
     307 [-]: GETIMPORT R13 72; var13 = 0x15DE116A
     308 [-]: LOADB R14 0  ; var14 = false
     309 [-]: LOADN R15 3  ; var15 = 3
     310 [-]: LOADN R16 2  ; var16 = 2
     311 [-]: LOADB R17 1  ; var17 = true
     312 [-]: NAMECALL R11 R6 K73; var12 = var6; var11 = var6[0x5D985C7E]
     313 [-]: CALL R11 7 1 ; var11(var12, var13, var14, var15, var16, var17)
     314 [-]: GETIMPORT R11 17; var11 = _T
     315 [-]: LOADNIL R12  ; var12 = nil
     316 [-]: SETTABLEKS R12 R11 K18; var12["Chimera_DisableDetection"] = var11
     317 [-]: MOVE R11 R10 ; var11 = var10
     318 [-]: GETIMPORT R12 3; var12 = 0x0469F296
     319 [-]: LOADK R13 K74; var13 = "BallasRantRespawn"
     320 [-]: CALL R12 2 0 ; var12, ... = var12(var13)
     321 [-]: CALL R11 0 2 ; var11 = var11(var12, ...)
     322 [-]: JUMPIF R11 L31; goto L31 if var11
     323 [-]: GETIMPORT R11 26; var11 = 0xCBD666E1
     324 [-]: LOADN R12 0  ; var12 = 0
     325 [-]: CALL R11 2 1 ; var11(var12)
L27: 326 [-]: GETIMPORT R11 64; var11 = _T["Chimera_Restart"]
     327 [-]: JUMPIFNOT R11 L30; goto L30 if not var11
     328 [-]: GETIMPORT R12 66; var12 = _T["curTransmission"]
     329 [-]: FASTCALL1 62 R12 L28; 
     330 [-]: GETIMPORT R11 7; var11 = 0x7B998233
     331 [-]: CALL R11 2 2 ; var11 = var11(var12)
L28: 332 [-]: JUMPIF R11 L29; goto L29 if var11
     333 [-]: GETUPVAL R12 1; var12 = upvalues[1]
     334 [-]: GETTABLEKS R11 R12 K67; var11 = var12[0xFE0D9469]
     335 [-]: GETIMPORT R12 66; var12 = _T["curTransmission"]
     336 [-]: CALL R11 2 1 ; var11(var12)
L29: 337 [-]: GETUPVAL R12 1; var12 = upvalues[1]
     338 [-]: GETTABLEKS R11 R12 K68; var11 = var12[0xA559EB32]
     339 [-]: CALL R11 1 1 ; var11()
     340 [-]: GETIMPORT R11 26; var11 = 0xCBD666E1
     341 [-]: LOADN R12 0  ; var12 = 0
     342 [-]: CALL R11 2 1 ; var11(var12)
     343 [-]: JUMPBACK L27 ; goto L27
L30: 344 [-]: JUMPBACK L26 ; goto L26
L31: 345 [-]: GETIMPORT R11 24; var11 = _T["Chimera_CurrentPoint"]
     346 [-]: JUMPIFNOTEQ R11 R4 L32; goto L32 if var11 ~= var1706830
     347 [-]: GETIMPORT R11 26; var11 = 0xCBD666E1
     348 [-]: LOADN R12 0  ; var12 = 0
     349 [-]: CALL R11 2 1 ; var11(var12)
     350 [-]: JUMPBACK L31 ; goto L31
L32: 351 [-]: LOADNIL R13  ; var13 = nil
     352 [-]: LOADB R14 0  ; var14 = false
     353 [-]: LOADN R15 2  ; var15 = 2
     354 [-]: LOADN R16 1  ; var16 = 1
     355 [-]: LOADB R17 1  ; var17 = true
     356 [-]: NAMECALL R11 R6 K73; var12 = var6; var11 = var6[0x5D985C7E]
     357 [-]: CALL R11 7 1 ; var11(var12, var13, var14, var15, var16, var17)
     358 [-]: JUMPBACK L15 ; goto L15
L33: 359 [-]: GETIMPORT R11 17; var11 = _T
     360 [-]: LOADB R12 1  ; var12 = true
     361 [-]: SETTABLEKS R12 R11 K18; var12["Chimera_DisableDetection"] = var11
     362 [-]: GETUPVAL R12 0; var12 = upvalues[0]
     363 [-]: GETTABLEKS R11 R12 K31; var11 = var12[0x9742B85B]
     364 [-]: GETIMPORT R12 33; var12 = 0xE91D7466
     365 [-]: GETIMPORT R13 3; var13 = 0x0469F296
     366 [-]: LOADK R14 K75; var14 = "BallasSwordComplete"
     367 [-]: CALL R13 2 0 ; var13, ... = var13(var14)
     368 [-]: CALL R11 0 1 ; var11(var12, ...)
     369 [-]: GETUPVAL R12 0; var12 = upvalues[0]
     370 [-]: GETTABLEKS R11 R12 K43; var11 = var12[0xFC87A231]
     371 [-]: CALL R11 1 1 ; var11()
     372 [-]: GETIMPORT R11 1; var11 = 0x89326C93
     373 [-]: GETIMPORT R13 3; var13 = 0x0469F296
     374 [-]: LOADK R14 K76; var14 = "ChimeraBallasSwordGrabCin"
     375 [-]: CALL R13 2 0 ; var13, ... = var13(var14)
     376 [-]: NAMECALL R11 R11 K5; var12 = var11; var11 = var11[0x46A0EBF5]
     377 [-]: CALL R11 0 2 ; var11 = var11(var12, ...)
     378 [-]: FASTCALL1 62 R11 L34; 
     379 [-]: MOVE R13 R11 ; var13 = var11
     380 [-]: GETIMPORT R12 7; var12 = 0x7B998233
     381 [-]: CALL R12 2 2 ; var12 = var12(var13)
L34: 382 [-]: JUMPIF R12 L38; goto L38 if var12
     383 [-]: LOADK R14 K47; var14 = "StartPlaying"
     384 [-]: NAMECALL R12 R11 K28; var13 = var11; var12 = var11[0x8EB2112D]
     385 [-]: CALL R12 3 1 ; var12(var13, var14)
L35: 386 [-]: NAMECALL R12 R11 K48; var13 = var11; var12 = var11[0x1C84839C]
     387 [-]: CALL R12 2 2 ; var12 = var12(var13)
     388 [-]: JUMPIF R12 L36; goto L36 if var12
     389 [-]: GETIMPORT R12 26; var12 = 0xCBD666E1
     390 [-]: LOADN R13 0  ; var13 = 0
     391 [-]: CALL R12 2 1 ; var12(var13)
     392 [-]: JUMPBACK L35 ; goto L35
L36: 393 [-]: GETIMPORT R14 78; var14 = 0x176BC146
     394 [-]: LOADB R15 0  ; var15 = false
     395 [-]: LOADN R16 3  ; var16 = 3
     396 [-]: LOADN R17 2  ; var17 = 2
     397 [-]: LOADB R18 1  ; var18 = true
     398 [-]: NAMECALL R12 R6 K73; var13 = var6; var12 = var6[0x5D985C7E]
     399 [-]: CALL R12 7 1 ; var12(var13, var14, var15, var16, var17, var18)
L37: 400 [-]: NAMECALL R12 R11 K48; var13 = var11; var12 = var11[0x1C84839C]
     401 [-]: CALL R12 2 2 ; var12 = var12(var13)
     402 [-]: JUMPIFNOT R12 L38; goto L38 if not var12
     403 [-]: GETIMPORT R12 26; var12 = 0xCBD666E1
     404 [-]: LOADN R13 0  ; var13 = 0
     405 [-]: CALL R12 2 1 ; var12(var13)
     406 [-]: JUMPBACK L37 ; goto L37
L38: 407 [-]: GETIMPORT R12 1; var12 = 0x89326C93
     408 [-]: GETIMPORT R14 3; var14 = 0x0469F296
     409 [-]: LOADK R15 K79; var15 = "ChimeraSwordPoint"
     410 [-]: CALL R14 2 0 ; var14, ... = var14(var15)
     411 [-]: NAMECALL R12 R12 K5; var13 = var12; var12 = var12[0x46A0EBF5]
     412 [-]: CALL R12 0 2 ; var12 = var12(var13, ...)
     413 [-]: LOADK R15 K80; var15 = "Enable"
     414 [-]: NAMECALL R13 R12 K28; var14 = var12; var13 = var12[0x8EB2112D]
     415 [-]: CALL R13 3 1 ; var13(var14, var15)
     416 [-]: GETIMPORT R13 26; var13 = 0xCBD666E1
     417 [-]: LOADN R14 0  ; var14 = 0
     418 [-]: CALL R13 2 1 ; var13(var14)
     419 [-]: GETIMPORT R13 30; var13 = _T["Chimera_SetConnectedPointsOverride"]
     420 [-]: NEWTABLE R14 0 1; var14 = {}
     421 [-]: MOVE R15 R12 ; var15 = var12
     422 [-]: SETLIST R14 R15 1 [1]; var14[1] = var15; var14[2] = var16; 
     423 [-]: CALL R13 2 1 ; var13(var14)
     424 [-]: GETIMPORT R13 17; var13 = _T
     425 [-]: LOADK R14 K81; var14 = 0.5
     426 [-]: SETTABLEKS R14 R13 K82; var14["Chimera_CancelWarpAtDelta"] = var13
L39: 427 [-]: GETIMPORT R13 24; var13 = _T["Chimera_CurrentPoint"]
     428 [-]: JUMPIFEQ R13 R12 L40; goto L40 if var13 == var1707342
     429 [-]: GETIMPORT R13 26; var13 = 0xCBD666E1
     430 [-]: LOADN R14 0  ; var14 = 0
     431 [-]: CALL R13 2 1 ; var13(var14)
     432 [-]: JUMPBACK L39 ; goto L39
L40: 433 [-]: GETIMPORT R13 26; var13 = 0xCBD666E1
     434 [-]: LOADN R14 0  ; var14 = 0
     435 [-]: CALL R13 2 1 ; var13(var14)
     436 [-]: GETIMPORT R13 30; var13 = _T["Chimera_SetConnectedPointsOverride"]
     437 [-]: NEWTABLE R14 0 0; var14 = {}
     438 [-]: CALL R13 2 1 ; var13(var14)
     439 [-]: GETIMPORT R13 1; var13 = 0x89326C93
     440 [-]: GETIMPORT R15 3; var15 = 0x0469F296
     441 [-]: LOADK R16 K83; var16 = "ChimeraBallasLairEndCin"
     442 [-]: CALL R15 2 0 ; var15, ... = var15(var16)
     443 [-]: NAMECALL R13 R13 K5; var14 = var13; var13 = var13[0x46A0EBF5]
     444 [-]: CALL R13 0 2 ; var13 = var13(var14, ...)
     445 [-]: LOADK R16 K47; var16 = "StartPlaying"
     446 [-]: NAMECALL R14 R13 K28; var15 = var13; var14 = var13[0x8EB2112D]
     447 [-]: CALL R14 3 1 ; var14(var15, var16)
L41: 448 [-]: NAMECALL R14 R13 K48; var15 = var13; var14 = var13[0x1C84839C]
     449 [-]: CALL R14 2 2 ; var14 = var14(var15)
     450 [-]: JUMPIF R14 L42; goto L42 if var14
     451 [-]: GETIMPORT R14 26; var14 = 0xCBD666E1
     452 [-]: LOADN R15 0  ; var15 = 0
     453 [-]: CALL R14 2 1 ; var14(var15)
     454 [-]: JUMPBACK L41 ; goto L41
L42: 455 [-]: NAMECALL R14 R13 K48; var15 = var13; var14 = var13[0x1C84839C]
     456 [-]: CALL R14 2 2 ; var14 = var14(var15)
     457 [-]: JUMPIFNOT R14 L43; goto L43 if not var14
     458 [-]: GETIMPORT R14 26; var14 = 0xCBD666E1
     459 [-]: LOADN R15 0  ; var15 = 0
     460 [-]: CALL R14 2 1 ; var14(var15)
     461 [-]: JUMPBACK L42 ; goto L42
L43: 462 [-]: CLOSEUPVALS R9; 
     463 [-]: RETURN R0 0  ; 


; Name:            
; Defined at line: 827
; #Upvalues:       2
; #Parameters:     1
; Is_vararg:       0
; Max Stack Size:  11

       0 [-]: GETIMPORT R2 3; var2 = _T["Chimera_FailureCount"]
       1 [-]: ORK R1 R2 K0 ; var1 = var2 or 0
L 0:   2 [-]: GETIMPORT R2 5; var2 = _T["Chimera_BallasDoingSearch"]
       3 [-]: JUMPIFNOT R2 L1; goto L1 if not var2
       4 [-]: GETIMPORT R2 7; var2 = 0xCBD666E1
       5 [-]: LOADN R3 0   ; var3 = 0
       6 [-]: CALL R2 2 1  ; var2(var3)
       7 [-]: JUMPBACK L0  ; goto L0
L 1:   8 [-]: GETIMPORT R3 3; var3 = _T["Chimera_FailureCount"]
       9 [-]: ORK R2 R3 K0 ; var2 = var3 or 0
      10 [-]: JUMPIFEQ R2 R1 L2; goto L2 if var2 == var65581
      11 [-]: RETURN R0 0  ; 
L 2:  12 [-]: GETIMPORT R4 9; var4 = 0x45CF24E2
      13 [-]: LOADB R5 0   ; var5 = false
      14 [-]: LOADN R6 3   ; var6 = 3
      15 [-]: LOADN R7 1   ; var7 = 1
      16 [-]: LOADB R8 1   ; var8 = true
      17 [-]: NAMECALL R2 R0 K10; var3 = var0; var2 = var0[0x5D985C7E]
      18 [-]: CALL R2 7 2  ; var2 = var2(var3, var4, var5, var6, var7, var8)
      19 [-]: GETIMPORT R3 12; var3 = 0xBE190284
      20 [-]: NAMECALL R3 R3 K13; var4 = var3; var3 = var3[0xAE962FA0]
      21 [-]: CALL R3 2 2  ; var3 = var3(var4)
      22 [-]: LOADK R6 K14 ; var6 = "SummonSword"
      23 [-]: MOVE R7 R2   ; var7 = var2
      24 [-]: NAMECALL R4 R0 K15; var5 = var0; var4 = var0[0x21B4C60E]
      25 [-]: CALL R4 4 1  ; var4(var5, var6, var7)
      26 [-]: GETIMPORT R5 3; var5 = _T["Chimera_FailureCount"]
      27 [-]: ORK R4 R5 K0 ; var4 = var5 or 0
      28 [-]: JUMPIFEQ R4 R1 L3; goto L3 if var4 == var65581
      29 [-]: RETURN R0 0  ; 
L 3:  30 [-]: GETIMPORT R4 16; var4 = _T
      31 [-]: GETUPVAL R5 0; var5 = upvalues[0]
      32 [-]: SETTABLEKS R5 R4 K17; var5["Chimera_SwordProgress"] = var4
      33 [-]: GETIMPORT R4 7; var4 = 0xCBD666E1
      34 [-]: LOADN R6 0   ; var6 = 0
      35 [-]: GETIMPORT R9 12; var9 = 0xBE190284
      36 [-]: NAMECALL R9 R9 K13; var10 = var9; var9 = var9[0xAE962FA0]
      37 [-]: CALL R9 2 2  ; var9 = var9(var10)
      38 [-]: SUB R8 R9 R3 ; var8 = var9 - var3
      39 [-]: SUB R7 R2 R8 ; var7 = var2 - var8
      40 [-]: FASTCALL2 18 R6 R7 L4; 
      41 [-]: GETIMPORT R5 20; var5 = 0x5BCED4C4[0xB62ECFE0]
      42 [-]: CALL R5 3 2  ; var5 = var5(var6, var7)
L 4:  43 [-]: CALL R4 2 1  ; var4(var5)
      44 [-]: LOADB R4 1   ; var4 = true
      45 [-]: SETUPVAL R4 1; upvalues[4] = var1
      46 [-]: RETURN R0 0  ; 


; Name:            
; Defined at line: 850
; #Upvalues:       1
; #Parameters:     0
; Is_vararg:       0
; Max Stack Size:  9

       0 [-]: GETIMPORT R0 1; var0 = 0xCBD666E1
       1 [-]: LOADK R1 K2  ; var1 = 0.10000000000000001
       2 [-]: CALL R0 2 1  ; var0(var1)
       3 [-]: GETIMPORT R0 4; var0 = 0x89326C93
       4 [-]: NAMECALL R0 R0 K5; var1 = var0; var0 = var0[0x78298275]
       5 [-]: CALL R0 2 2  ; var0 = var0(var1)
       6 [-]: LOADNIL R1   ; var1 = nil
       7 [-]: LOADNIL R2   ; var2 = nil
       8 [-]: FASTCALL1 62 R0 L0; 
       9 [-]: MOVE R4 R0   ; var4 = var0
      10 [-]: GETIMPORT R3 7; var3 = 0x7B998233
      11 [-]: CALL R3 2 2  ; var3 = var3(var4)
L 0:  12 [-]: JUMPIF R3 L1 ; goto L1 if var3
      13 [-]: GETIMPORT R3 4; var3 = 0x89326C93
      14 [-]: GETIMPORT R5 9; var5 = gLotusSentinelAvatarType
      15 [-]: NAMECALL R6 R0 K10; var7 = var0; var6 = var0[0xD1586535]
      16 [-]: CALL R6 2 2  ; var6 = var6(var7)
      17 [-]: LOADN R7 200 ; var7 = 200
      18 [-]: NAMECALL R3 R3 K11; var4 = var3; var3 = var3[0x4E5939A5]
      19 [-]: CALL R3 5 2  ; var3 = var3(var4, var5, var6, var7)
      20 [-]: MOVE R1 R3   ; var1 = var3
      21 [-]: GETIMPORT R3 4; var3 = 0x89326C93
      22 [-]: GETUPVAL R5 0; var5 = upvalues[0]
      23 [-]: NAMECALL R6 R0 K10; var7 = var0; var6 = var0[0xD1586535]
      24 [-]: CALL R6 2 2  ; var6 = var6(var7)
      25 [-]: LOADN R7 200 ; var7 = 200
      26 [-]: NAMECALL R3 R3 K11; var4 = var3; var3 = var3[0x4E5939A5]
      27 [-]: CALL R3 5 2  ; var3 = var3(var4, var5, var6, var7)
      28 [-]: MOVE R2 R3   ; var2 = var3
L 1:  29 [-]: FASTCALL1 62 R1 L2; 
      30 [-]: MOVE R4 R1   ; var4 = var1
      31 [-]: GETIMPORT R3 7; var3 = 0x7B998233
      32 [-]: CALL R3 2 2  ; var3 = var3(var4)
L 2:  33 [-]: JUMPIF R3 L3 ; goto L3 if var3
      34 [-]: NAMECALL R3 R1 K12; var4 = var1; var3 = var1[0x2047CFE7]
      35 [-]: CALL R3 2 2  ; var3 = var3(var4)
      36 [-]: JUMPIF R3 L3 ; goto L3 if var3
      37 [-]: NAMECALL R3 R1 K13; var4 = var1; var3 = var1[0xA2880940]
      38 [-]: CALL R3 2 1  ; var3(var4)
L 3:  39 [-]: LOADNIL R3   ; var3 = nil
      40 [-]: FASTCALL1 62 R2 L4; 
      41 [-]: MOVE R5 R2   ; var5 = var2
      42 [-]: GETIMPORT R4 7; var4 = 0x7B998233
      43 [-]: CALL R4 2 2  ; var4 = var4(var5)
L 4:  44 [-]: JUMPIF R4 L5 ; goto L5 if var4
      45 [-]: NAMECALL R4 R2 K14; var5 = var2; var4 = var2[0xFA9E477F]
      46 [-]: CALL R4 2 2  ; var4 = var4(var5)
      47 [-]: MOVE R3 R4   ; var3 = var4
L 5:  48 [-]: GETIMPORT R4 16; var4 = 0x0469F296
      49 [-]: LOADK R5 K17 ; var5 = "PauseUmbra"
      50 [-]: CALL R4 2 2  ; var4 = var4(var5)
      51 [-]: FASTCALL1 62 R2 L6; 
      52 [-]: MOVE R6 R2   ; var6 = var2
      53 [-]: GETIMPORT R5 7; var5 = 0x7B998233
      54 [-]: CALL R5 2 2  ; var5 = var5(var6)
L 6:  55 [-]: JUMPIF R5 L8 ; goto L8 if var5
      56 [-]: FASTCALL1 62 R3 L7; 
      57 [-]: MOVE R6 R3   ; var6 = var3
      58 [-]: GETIMPORT R5 7; var5 = 0x7B998233
      59 [-]: CALL R5 2 2  ; var5 = var5(var6)
L 7:  60 [-]: JUMPIF R5 L8 ; goto L8 if var5
      61 [-]: LOADB R7 0   ; var7 = false
      62 [-]: LOADB R8 1   ; var8 = true
      63 [-]: NAMECALL R5 R2 K18; var6 = var2; var5 = var2[0x768274D6]
      64 [-]: CALL R5 4 1  ; var5(var6, var7, var8)
      65 [-]: LOADB R7 1   ; var7 = true
      66 [-]: MOVE R8 R4   ; var8 = var4
      67 [-]: NAMECALL R5 R3 K19; var6 = var3; var5 = var3[0x55E9211C]
      68 [-]: CALL R5 4 1  ; var5(var6, var7, var8)
L 8:  69 [-]: RETURN R0 0  ; 



